user_id,polarity,vec_BIG_OIL,vec_CHINA,vec_EU_UKRAINE,vec_ISRAEL,vec_LNG,vec_RENEWABLES,vec_RUSSIA,vec_SANCTIONS_TARIFFS,vec_US_POLICY
tw4694393503,-0.5272321241876583,0.0,0.0,-1.0,0.0,0.0,-1.0,1.0,-1.0,0.0
tw1252168455354298369,-0.5272321241876583,0.0,0.0,-1.0,0.0,0.0,-1.0,1.0,-1.0,0.0
tw67462821,0.0,0.0,0.0,0.0,0.0,0.0,0.0,0.0,0.0,0.0
tw1482350049787006987,-0.9999999989950353,0.0,0.0,0.0,0.0,0.0,0.0,0.0,0.0,-1.0
tw1873168980422344704,-0.5272321241876583,0.0,0.0,-1.0,0.0,0.0,-1.0,1.0,-1.0,0.0
tw1208514896570114049,-0.47090765453157357,0.0,0.0,-0.3333333333333333,0.0,0.0,0.0,-0.3333333333333333,-0.6666666666666666,0.0
tw910866077126742016,-0.5272321241876583,0.0,0.0,-1.0,0.0,0.0,-1.0,1.0,-1.0,0.0
tw1728970401114636288,-0.9999999989950353,0.0,0.0,0.0,0.0,0.0,0.0,0.0,0.0,-1.0
tw1693050524,-0.5272321241876583,0.0,0.0,-1.0,0.0,0.0,-1.0,1.0,-1.0,0.0
tw1358448365030289411,0.37649157381908854,0.0,0.0,0.0,0.0,0.5,0.0,0.0,-0.5,0.5
tw43463961,0.43970859545833585,0.0,0.6666666666666666,0.3333333333333333,0.0,0.6666666666666666,0.0,0.0,0.3333333333333333,0.3333333333333333
tw1876821854305878016,0.9999999995186878,0.2,0.0,0.0,0.0,0.6,-0.6,0.0,0.0,0.8
tw1351560482,0.20610619751024603,0.25,-0.25,0.0,0.0,0.25,0.0,0.0,-0.25,-0.25
tw181115403,-0.5272321241876583,0.0,0.0,-1.0,0.0,0.0,-1.0,1.0,-1.0,0.0
tw1511665221886173191,-0.5272321241876583,0.0,0.0,-1.0,0.0,0.0,-1.0,1.0,-1.0,0.0
tw1219232459369435138,-0.5272321240388236,0.0,0.0,-0.5,0.0,0.0,-0.5,0.5,-0.5,0.0
tw1385684134937440261,-0.9999999989950353,0.0,0.0,0.0,0.0,0.0,0.0,0.0,0.0,-1.0
tw2457018674,0.9999999930456711,0.0,0.0,0.16666666666666666,0.0,0.0,0.0,0.0,0.0,0.0
tw526082673,-0.5272321241876583,0.0,0.0,-1.0,0.0,0.0,-1.0,1.0,-1.0,0.0
tw1628843927649370113,-0.5272321241876583,0.0,0.0,-1.0,0.0,0.0,-1.0,1.0,-1.0,0.0
tw2752421026,-0.19231193788466958,0.0,0.0,-0.5,0.0,0.0,-0.5,0.5,-0.5,0.5
tw166957487,-0.5272321241876583,0.0,0.0,-1.0,0.0,0.0,-1.0,1.0,-1.0,0.0
tw467784317,0.5638444080867363,0.0,0.0,0.4,0.0,0.0,0.0,-0.2,0.2,-0.2
tw54313278,0.506789897343344,1.0,1.0,0.0,0.0,1.0,-1.0,0.0,0.0,0.0
tw1402153772722266117,-0.5272321241876583,0.0,0.0,-1.0,0.0,0.0,-1.0,1.0,-1.0,0.0
tw1795063864259661825,-0.9999999989950353,0.0,0.0,0.0,0.0,0.0,0.0,0.0,0.0,-1.0
tw855402355621277696,-0.5272321241876583,0.0,0.0,-1.0,0.0,0.0,-1.0,1.0,-1.0,0.0
tw1562549251204214784,-0.5272321241876583,0.0,0.0,-1.0,0.0,0.0,-1.0,1.0,-1.0,0.0
tw1380082240739246080,-0.5272321241876583,0.0,0.0,-1.0,0.0,0.0,-1.0,1.0,-1.0,0.0
tw309419484,-0.5272321241876583,0.0,0.0,-1.0,0.0,0.0,-1.0,1.0,-1.0,0.0
tw1542394335261609984,-0.5272321241876583,0.0,0.0,-1.0,0.0,0.0,-1.0,1.0,-1.0,0.0
tw975287029855588354,-0.5272321241876583,0.0,0.0,-1.0,0.0,0.0,-1.0,1.0,-1.0,0.0
tw1604926442256605200,-0.5272321241876583,0.0,0.0,-1.0,0.0,0.0,-1.0,1.0,-1.0,0.0
tw2671261221,-0.5272321241876583,0.0,0.0,-1.0,0.0,0.0,-1.0,1.0,-1.0,0.0
tw1340118939557355521,-0.5272321241876583,0.0,0.0,-1.0,0.0,0.0,-1.0,1.0,-1.0,0.0
tw196812538,-0.5272321241876583,0.0,0.0,-1.0,0.0,0.0,-1.0,1.0,-1.0,0.0
tw1481614752476545027,-0.5272321241876583,0.0,0.0,-1.0,0.0,0.0,-1.0,1.0,-1.0,0.0
tw1124044758,-0.5272321241876583,0.0,0.0,-1.0,0.0,0.0,-1.0,1.0,-1.0,0.0
tw1749442199610171392,-0.5272321241876583,0.0,0.0,-1.0,0.0,0.0,-1.0,1.0,-1.0,0.0
tw829958105182109696,0.0,0.0,0.0,0.0,0.0,0.0,0.0,0.0,0.0,0.0
tw1482526161599143942,0.0,0.0,0.0,0.0,0.0,0.0,0.0,0.0,0.0,0.0
tw3125797167,-0.5272321241876583,0.0,0.0,-1.0,0.0,0.0,-1.0,1.0,-1.0,0.0
tw1514113627,-0.5272321241876583,0.0,0.0,-1.0,0.0,0.0,-1.0,1.0,-1.0,0.0
tw1359634293329448966,-0.7710040922100416,0.0,0.5,-0.5,0.0,-0.5,-0.5,0.5,-1.0,-0.5
tw3484575387,0.059463349886670507,0.0,0.0,-0.5,0.0,0.5,0.0,0.0,0.0,0.0
tw1196750512638636033,-0.5272321241876583,0.0,0.0,-1.0,0.0,0.0,-1.0,1.0,-1.0,0.0
tw217745276,-0.5272321241876583,0.0,0.0,-1.0,0.0,0.0,-1.0,1.0,-1.0,0.0
tw14954039,-0.5272321241876583,0.0,0.0,-1.0,0.0,0.0,-1.0,1.0,-1.0,0.0
tw1974530989,-0.5272321241876583,0.0,0.0,-1.0,0.0,0.0,-1.0,1.0,-1.0,0.0
tw34062100,0.0,0.0,0.0,0.0,0.0,0.0,0.0,0.0,0.0,0.0
tw115648763,-0.5272321241876583,0.0,0.0,-1.0,0.0,0.0,-1.0,1.0,-1.0,0.0
tw290197802,0.0,0.0,0.0,0.0,0.0,0.0,0.0,0.0,0.0,0.0
tw1434242015844315139,-0.6297075612484917,-0.5,0.0,-0.5,0.0,0.0,-0.5,0.5,-0.5,0.0
tw1492338008544141315,-0.9999999989950353,0.0,0.0,0.0,0.0,0.0,0.0,0.0,0.0,-1.0
tw274260142,-0.9999999989950353,0.0,0.0,0.0,0.0,0.0,0.0,0.0,0.0,-1.0
tw1496622895577112576,-0.5272321241876583,0.0,0.0,-1.0,0.0,0.0,-1.0,1.0,-1.0,0.0
tw796433174939123712,-0.9999999989950353,0.0,0.0,0.0,0.0,0.0,0.0,0.0,0.0,-1.0
tw1599323240115101696,-0.5272321241876583,0.0,0.0,-1.0,0.0,0.0,-1.0,1.0,-1.0,0.0
tw2694913415,-0.5272321241876583,0.0,0.0,-1.0,0.0,0.0,-1.0,1.0,-1.0,0.0
tw734871337,-0.5272321241876583,0.0,0.0,-1.0,0.0,0.0,-1.0,1.0,-1.0,0.0
tw772973759988891648,-0.5272321241876583,0.0,0.0,-1.0,0.0,0.0,-1.0,1.0,-1.0,0.0
tw3580480223,-0.5272321241876583,0.0,0.0,-1.0,0.0,0.0,-1.0,1.0,-1.0,0.0
tw870369466919636993,0.010690608105915086,0.0,0.0,0.0,0.0,0.3333333333333333,0.0,0.3333333333333333,0.0,0.0
tw33827440,-0.5272321241876583,0.0,0.0,-1.0,0.0,0.0,-1.0,1.0,-1.0,0.0
tw3289503244,-0.9999999989950353,0.0,0.0,0.0,0.0,0.0,0.0,0.0,0.0,-1.0
tw786647020438192128,-0.5272321241876583,0.0,0.0,-1.0,0.0,0.0,-1.0,1.0,-1.0,0.0
tw1122752432,0.9999999994915922,0.0,0.0,0.0,0.0,1.0,0.0,0.0,0.0,1.0
tw91156289,0.9999999991565738,0.16666666666666666,0.0,0.0,0.0,0.8333333333333334,-0.05555555555555555,0.0,0.0,0.16666666666666666
tw2883492447,-0.9999999989950353,0.0,0.0,0.0,0.0,0.0,0.0,0.0,0.0,-1.0
tw374226166,0.9999999976818903,0.0,0.0,0.5,0.0,0.0,0.0,0.0,0.0,0.0
tw939883338,-0.5272321241876583,0.0,0.0,-1.0,0.0,0.0,-1.0,1.0,-1.0,0.0
tw1926649406,-0.5272321241876583,0.0,0.0,-1.0,0.0,0.0,-1.0,1.0,-1.0,0.0
tw926386820463648774,-0.7710040922100416,0.0,0.5,-0.5,0.0,-0.5,-0.5,0.5,-1.0,-0.5
tw1156953311150583811,-0.5272321241876583,0.0,0.0,-1.0,0.0,0.0,-1.0,1.0,-1.0,0.0
tw862444393411817477,-0.5272321241876583,0.0,0.0,-1.0,0.0,0.0,-1.0,1.0,-1.0,0.0
tw1684168488309469187,-0.5272321241876583,0.0,0.0,-1.0,0.0,0.0,-1.0,1.0,-1.0,0.0
tw823710637,-0.9999999994809161,0.0,0.0,0.0,0.0,-0.5,0.0,0.0,-0.5,-1.0
tw1792931643239378944,-0.5272321241876583,0.0,0.0,-1.0,0.0,0.0,-1.0,1.0,-1.0,0.0
tw566635189,-0.5272321241876583,0.0,0.0,-1.0,0.0,0.0,-1.0,1.0,-1.0,0.0
tw734548882718396416,-0.5272321241876583,0.0,0.0,-1.0,0.0,0.0,-1.0,1.0,-1.0,0.0
tw1243692475975417858,-0.5272321241876583,0.0,0.0,-1.0,0.0,0.0,-1.0,1.0,-1.0,0.0
tw3580242023,-0.5272321241876583,0.0,0.0,-1.0,0.0,0.0,-1.0,1.0,-1.0,0.0
tw77986283,-0.5272321241876583,0.0,0.0,-1.0,0.0,0.0,-1.0,1.0,-1.0,0.0
tw1820463576340983809,-0.5272321241876583,0.0,0.0,-1.0,0.0,0.0,-1.0,1.0,-1.0,0.0
tw730873375,0.0,0.0,0.0,0.0,0.0,0.0,0.0,0.0,0.0,0.0
tw1363366230325927936,-0.9999999989950353,0.0,0.0,0.0,0.0,0.0,0.0,0.0,0.0,-1.0
tw258794651,-0.5272321241876583,0.0,0.0,-1.0,0.0,0.0,-1.0,1.0,-1.0,0.0
tw305366693,-0.9999999989950353,0.0,0.0,0.0,0.0,0.0,0.0,0.0,0.0,-1.0
tw463187483,-0.5272321241876583,0.0,0.0,-1.0,0.0,0.0,-1.0,1.0,-1.0,0.0
tw784913174168567808,-0.5272321241876583,0.0,0.0,-1.0,0.0,0.0,-1.0,1.0,-1.0,0.0
tw1117800285932593153,-0.5272321241876583,0.0,0.0,-1.0,0.0,0.0,-1.0,1.0,-1.0,0.0
tw1356261165597401088,-0.5272321241876583,0.0,0.0,-1.0,0.0,0.0,-1.0,1.0,-1.0,0.0
tw1497178571806154758,-0.5272321241876583,0.0,0.0,-1.0,0.0,0.0,-1.0,1.0,-1.0,0.0
tw1683547132957949957,0.9999999994587645,0.0,0.0,0.0,0.0,0.5,-0.5,0.0,0.5,0.5
tw1540410510990102531,-0.5272321241876583,0.0,0.0,-1.0,0.0,0.0,-1.0,1.0,-1.0,0.0
tw854958877,-0.5272321241876583,0.0,0.0,-1.0,0.0,0.0,-1.0,1.0,-1.0,0.0
tw909714688237334528,-0.5272321241876583,0.0,0.0,-1.0,0.0,0.0,-1.0,1.0,-1.0,0.0
tw15301503,0.32674792747702586,0.0,0.0,0.16666666666666666,0.0,0.0,0.0,-0.5,-0.16666666666666666,-0.16666666666666666
tw1526821158414336000,-0.5272321241876583,0.0,0.0,-1.0,0.0,0.0,-1.0,1.0,-1.0,0.0
tw1489736544067985412,-0.5272321241876583,0.0,0.0,-1.0,0.0,0.0,-1.0,1.0,-1.0,0.0
tw214496164,-0.5272321241876583,0.0,0.0,-1.0,0.0,0.0,-1.0,1.0,-1.0,0.0
tw1481541849617682432,-0.5272321241876583,0.0,0.0,-1.0,0.0,0.0,-1.0,1.0,-1.0,0.0
tw1419675277207220224,-0.5272321241876583,0.0,0.0,-1.0,0.0,0.0,-1.0,1.0,-1.0,0.0
tw514888959,-0.5272321241876583,0.0,0.0,-1.0,0.0,0.0,-1.0,1.0,-1.0,0.0
tw1494402338,-0.9999999989950353,0.0,0.0,0.0,0.0,0.0,0.0,0.0,0.0,-1.0
tw582625323,-0.5272321241876583,0.0,0.0,-1.0,0.0,0.0,-1.0,1.0,-1.0,0.0
tw1601305372442218496,-0.7710040922100416,0.0,0.5,-0.5,0.0,-0.5,-0.5,0.5,-1.0,-0.5
tw2906259655,-0.9999999989950353,0.0,0.0,0.0,0.0,0.0,0.0,0.0,0.0,-1.0
tw1542187379859111936,-0.9999999989950353,0.0,0.0,0.0,0.0,0.0,0.0,0.0,0.0,-1.0
tw1787209598862016512,-0.5272321241876583,0.0,0.0,-1.0,0.0,0.0,-1.0,1.0,-1.0,0.0
tw216517158,-0.530354869193991,0.0,0.5,0.0,0.0,0.0,0.0,0.0,0.5,-1.0
tw259172647,-0.5272321240388236,0.0,0.0,-0.5,0.0,0.0,-0.5,0.5,-0.5,0.0
tw734075802128523265,-0.6340864080359918,0.0,0.0,0.3333333333333333,0.0,-0.3333333333333333,0.0,0.0,-0.3333333333333333,-0.6666666666666666
tw1245569317,-0.5272321241876583,0.0,0.0,-1.0,0.0,0.0,-1.0,1.0,-1.0,0.0
tw2727551488,-0.5272321241876583,0.0,0.0,-1.0,0.0,0.0,-1.0,1.0,-1.0,0.0
tw1357316164037140481,-0.22474705390822425,0.0,-0.25,-0.25,0.0,0.0,-0.25,0.5,0.0,0.0
tw1300789275076816901,-0.9999999989950353,0.0,0.0,0.0,0.0,0.0,0.0,0.0,0.0,-1.0
tw1109743123331194880,-0.5272321240388236,0.0,0.0,-0.5,0.0,0.0,-0.5,0.5,-0.5,0.0
tw1080738301504565248,-0.5272321241876583,0.0,0.0,-1.0,0.0,0.0,-1.0,1.0,-1.0,0.0
tw1330056130031214594,-0.5272321241876583,0.0,0.0,-1.0,0.0,0.0,-1.0,1.0,-1.0,0.0
tw176054457,-0.5272321241876583,0.0,0.0,-1.0,0.0,0.0,-1.0,1.0,-1.0,0.0
tw455015681,-0.07120552720210871,0.0,0.0,0.5,0.0,0.0,0.0,0.0,0.0,-0.5
tw301896133,-0.5272321241876583,0.0,0.0,-1.0,0.0,0.0,-1.0,1.0,-1.0,0.0
tw43721010,-0.9999999989950353,0.0,0.0,0.0,0.0,0.0,0.0,0.0,0.0,-1.0
tw125333935,-0.9999999989950353,0.0,0.0,0.0,0.0,0.0,0.0,0.0,0.0,-1.0
tw3029098295,0.0,0.0,0.0,0.0,0.0,0.0,0.0,0.0,0.0,0.0
tw612419858,-0.5272321241876583,0.0,0.0,-1.0,0.0,0.0,-1.0,1.0,-1.0,0.0
tw1068646828520935424,0.6249634846616358,0.25,-0.25,0.0,0.0,0.25,0.0,0.0,-0.25,0.25
tw327426702,-0.6765729291252083,0.0,0.1111111111111111,-0.2222222222222222,0.0,0.1111111111111111,-0.2222222222222222,0.3333333333333333,-0.7777777777777778,-0.2222222222222222
tw20786930,-0.6232290591632333,0.0,-0.3333333333333333,0.0,0.0,-0.6666666666666666,0.0,0.0,0.0,-0.6666666666666666
tw2538260976,-0.5272321241876583,0.0,0.0,-1.0,0.0,0.0,-1.0,1.0,-1.0,0.0
tw1851082827162337280,-0.9999999989950353,0.0,0.0,0.0,0.0,0.0,0.0,0.0,0.0,-1.0
tw1255584228076593157,-0.5272321241876583,0.0,0.0,-1.0,0.0,0.0,-1.0,1.0,-1.0,0.0
tw770470333933584386,-0.5272321241876583,0.0,0.0,-1.0,0.0,0.0,-1.0,1.0,-1.0,0.0
tw1692023594,0.0,0.0,0.0,0.0,0.0,0.0,0.0,0.0,0.0,0.0
tw705170343493816321,0.0,0.0,0.0,0.0,0.0,0.0,0.0,0.0,0.0,0.0
tw372393596,-0.9999999989950353,0.0,0.0,0.0,0.0,0.0,0.0,0.0,0.0,-1.0
tw1393026118303854594,-0.9999999989950353,0.0,0.0,0.0,0.0,0.0,0.0,0.0,0.0,-1.0
tw288057725,0.9999999976818903,0.0,0.0,0.5,0.0,0.0,0.0,0.0,0.0,0.0
tw1072205486395674629,-0.9999999989950353,0.0,0.0,0.0,0.0,0.0,0.0,0.0,0.0,-1.0
tw1388574187,-0.9999999989950353,0.0,0.0,0.0,0.0,0.0,0.0,0.0,0.0,-1.0
tw1197662392630611968,-0.5272321241876583,0.0,0.0,-1.0,0.0,0.0,-1.0,1.0,-1.0,0.0
tw616576119,-0.5272321241876583,0.0,0.0,-1.0,0.0,0.0,-1.0,1.0,-1.0,0.0
tw259449303,0.9999999968464398,0.0,0.0,0.0,0.0,0.0,0.0,-0.3333333333333333,0.0,0.0
tw1493692415777153027,-0.5272321241876583,0.0,0.0,-1.0,0.0,0.0,-1.0,1.0,-1.0,0.0
tw2736452230,-0.07120552712545426,0.0,0.0,0.25,0.0,0.0,0.0,0.0,0.0,-0.25
tw2327478721,-0.9999999989950353,0.0,0.0,0.0,0.0,0.0,0.0,0.0,0.0,-1.0
tw1314668233237188608,-0.8608706004740818,0.0,0.6,-0.2,0.0,-0.2,-0.2,0.6,-0.4,-0.4
tw26445040,-0.9999999989950353,0.0,0.0,0.0,0.0,0.0,0.0,0.0,0.0,-1.0
tw1463971920471212033,-0.9999999989950353,0.0,0.0,0.0,0.0,0.0,0.0,0.0,0.0,-1.0
tw1284896620824453120,-0.9999999989950353,0.0,0.0,0.0,0.0,0.0,0.0,0.0,0.0,-1.0
tw1804261681075302400,-0.5272321241876583,0.0,0.0,-1.0,0.0,0.0,-1.0,1.0,-1.0,0.0
tw1524094166900391936,-0.7340746393144773,0.0,0.5,-0.5,0.0,0.0,-0.5,1.0,-1.0,0.0
tw754811962660311040,-0.9999999979900706,0.0,0.0,0.0,0.0,0.0,0.0,0.0,0.0,-0.5
tw1105186615,-0.9999999989950353,0.0,0.0,0.0,0.0,0.0,0.0,0.0,0.0,-1.0
tw2364894978,0.0,0.0,0.0,0.0,0.0,0.0,0.0,0.0,0.0,0.0
tw1392187982535438339,-0.9999999989950353,0.0,0.0,0.0,0.0,0.0,0.0,0.0,0.0,-1.0
tw729863660,-0.9999999979900706,0.0,0.0,0.0,0.0,0.0,0.0,0.0,0.0,-0.5
tw1121334664051011584,-0.9999999989950353,0.0,0.0,0.0,0.0,0.0,0.0,0.0,0.0,-1.0
tw834572923,0.6917148527517418,0.0,-0.25,0.25,0.0,0.0,0.0,-0.5,0.5,-0.25
tw850367182005559297,-0.5272321241876583,0.0,0.0,-1.0,0.0,0.0,-1.0,1.0,-1.0,0.0
tw242670816,0.0,0.0,0.0,0.0,0.0,0.0,0.0,0.0,0.0,0.0
tw1596164625518698500,-0.5272321241876583,0.0,0.0,-1.0,0.0,0.0,-1.0,1.0,-1.0,0.0
tw94868048,-0.9999999989950353,0.0,0.0,0.0,0.0,0.0,0.0,0.0,0.0,-1.0
tw468803868,-0.5272321241876583,0.0,0.0,-1.0,0.0,0.0,-1.0,1.0,-1.0,0.0
tw200330249,-0.5272321241876583,0.0,0.0,-1.0,0.0,0.0,-1.0,1.0,-1.0,0.0
tw270516218,-0.9999999969851059,0.0,0.0,0.0,0.0,0.0,0.0,0.0,0.0,-0.3333333333333333
tw1693047035895656448,-0.5272321241876583,0.0,0.0,-1.0,0.0,0.0,-1.0,1.0,-1.0,0.0
tw1631592050,-0.5272321241876583,0.0,0.0,-1.0,0.0,0.0,-1.0,1.0,-1.0,0.0
tw161933900,-0.9999999989950353,0.0,0.0,0.0,0.0,0.0,0.0,0.0,0.0,-1.0
tw49236051,-0.9999999989950353,0.0,0.0,0.0,0.0,0.0,0.0,0.0,0.0,-1.0
tw243746431,-0.9999999989950353,0.0,0.0,0.0,0.0,0.0,0.0,0.0,0.0,-1.0
tw1175489837362831360,-0.5272321241876583,0.0,0.0,-1.0,0.0,0.0,-1.0,1.0,-1.0,0.0
tw198958324,-0.5272321241876583,0.0,0.0,-1.0,0.0,0.0,-1.0,1.0,-1.0,0.0
tw1247271730076438529,-0.5272321241876583,0.0,0.0,-1.0,0.0,0.0,-1.0,1.0,-1.0,0.0
tw1046125825,0.17918497073231543,0.0,0.0,0.0,0.0,0.5,-1.0,0.5,-0.5,0.0
tw873909694762496000,-0.5272321241876583,0.0,0.0,-1.0,0.0,0.0,-1.0,1.0,-1.0,0.0
tw433642456,0.0,0.0,0.0,0.0,0.0,0.0,0.0,0.0,0.0,0.0
tw1858488723844763648,-0.5272321241876583,0.0,0.0,-1.0,0.0,0.0,-1.0,1.0,-1.0,0.0
tw1856168053681074176,-0.5272321241876583,0.0,0.0,-1.0,0.0,0.0,-1.0,1.0,-1.0,0.0
tw119322785,0.0,0.0,0.0,0.0,0.0,0.0,0.0,0.0,0.0,0.0
tw44534424,-0.9999999989950353,0.0,0.0,0.0,0.0,0.0,0.0,0.0,0.0,-1.0
tw1937436782,-0.5272321241876583,0.0,0.0,-1.0,0.0,0.0,-1.0,1.0,-1.0,0.0
tw1635698034,0.0,0.0,0.0,0.0,0.0,0.0,0.0,0.0,0.0,0.0
tw1126210045518200835,0.9999999993361528,0.0,0.0,0.6666666666666666,0.0,0.0,0.0,-0.6666666666666666,0.3333333333333333,0.0
tw2721175036,0.0,0.0,0.0,0.0,0.0,0.0,0.0,0.0,0.0,0.0
tw966117117220343808,-0.9999999989950353,0.0,0.0,0.0,0.0,0.0,0.0,0.0,0.0,-1.0
tw1053293688363929600,-0.5272321241876583,0.0,0.0,-1.0,0.0,0.0,-1.0,1.0,-1.0,0.0
tw3145734280,0.0,0.0,0.0,0.0,0.0,0.0,0.0,0.0,0.0,0.0
tw102202964,0.0,0.0,0.0,0.0,0.0,0.0,0.0,0.0,0.0,0.0
tw164031061,-0.9999999989950353,0.0,0.0,0.0,0.0,0.0,0.0,0.0,0.0,-1.0
tw1250093386767441923,-0.5272321241876583,0.0,0.0,-1.0,0.0,0.0,-1.0,1.0,-1.0,0.0
tw84779244,-0.9999999989950353,0.0,0.0,0.0,0.0,0.0,0.0,0.0,0.0,-1.0
tw239347361,-0.9999999989950353,0.0,0.0,0.0,0.0,0.0,0.0,0.0,0.0,-1.0
tw857315135198683137,-0.9999999989950353,0.0,0.0,0.0,0.0,0.0,0.0,0.0,0.0,-1.0
tw1470065207062020102,-0.9999999989950353,0.0,0.0,0.0,0.0,0.0,0.0,0.0,0.0,-1.0
tw1165594256305790978,-0.5272321241876583,0.0,0.0,-1.0,0.0,0.0,-1.0,1.0,-1.0,0.0
tw21971612,-0.9999999979900706,0.0,0.0,0.0,0.0,0.0,0.0,0.0,0.0,-0.5
tw1444427494669656064,-0.5272321241876583,0.0,0.0,-1.0,0.0,0.0,-1.0,1.0,-1.0,0.0
tw1543367348,-0.5272321241876583,0.0,0.0,-1.0,0.0,0.0,-1.0,1.0,-1.0,0.0
tw877258495309090816,-0.5272321241876583,0.0,0.0,-1.0,0.0,0.0,-1.0,1.0,-1.0,0.0
tw800470083789127680,-0.5272321241876583,0.0,0.0,-1.0,0.0,0.0,-1.0,1.0,-1.0,0.0
tw142555469,0.0,0.0,0.0,0.0,0.0,0.0,0.0,0.0,0.0,0.0
tw1177734044,0.0,0.0,0.0,0.0,0.0,0.0,0.0,0.0,0.0,0.0
tw1660011688995823617,-0.9999999989950353,0.0,0.0,0.0,0.0,0.0,0.0,0.0,0.0,-1.0
tw1051492560030625793,-0.9999999969851059,0.0,0.0,0.0,0.0,0.0,0.0,0.0,0.0,-0.3333333333333333
tw3293773070,0.0,0.0,0.0,0.0,0.0,0.0,0.0,0.0,0.0,0.0
tw219299815,-0.619825725212994,0.0,0.0,-1.0,0.0,0.0,-0.5,0.5,-0.5,0.0
tw957575472858189824,-0.5272321241876583,0.0,0.0,-1.0,0.0,0.0,-1.0,1.0,-1.0,0.0
tw41389715,-0.9999999989950353,0.0,0.0,0.0,0.0,0.0,0.0,0.0,0.0,-1.0
tw2574015177,-0.9999999989950353,0.0,0.0,0.0,0.0,0.0,0.0,0.0,0.0,-1.0
tw3191478638,-0.9999999989502717,0.0,0.0,0.0,0.0,-0.3333333333333333,0.0,0.0,-0.3333333333333333,-0.3333333333333333
tw36728338,0.0,0.0,0.0,0.0,0.0,0.0,0.0,0.0,0.0,0.0
tw817434465349746688,-0.9999999989950353,0.0,0.0,0.0,0.0,0.0,0.0,0.0,0.0,-1.0
tw3066796555,-0.9999999989950353,0.0,0.0,0.0,0.0,0.0,0.0,0.0,0.0,-1.0
tw1140528632055631872,-0.5272321241876583,0.0,0.0,-1.0,0.0,0.0,-1.0,1.0,-1.0,0.0
tw26862693,-0.9999999989950353,0.0,0.0,0.0,0.0,0.0,0.0,0.0,0.0,-1.0
tw1661756377566437380,0.0,0.0,0.0,0.0,0.0,0.0,0.0,0.0,0.0,0.0
tw1040591054582366209,-0.5272321241876583,0.0,0.0,-1.0,0.0,0.0,-1.0,1.0,-1.0,0.0
tw170864404,-0.5272321241876583,0.0,0.0,-1.0,0.0,0.0,-1.0,1.0,-1.0,0.0
tw1519351424425021443,-0.5272321241876583,0.0,0.0,-1.0,0.0,0.0,-1.0,1.0,-1.0,0.0
tw488008170,-0.9999999989950353,0.0,0.0,0.0,0.0,0.0,0.0,0.0,0.0,-1.0
tw1298378642767130624,-0.9999999989950353,0.0,0.0,0.0,0.0,0.0,0.0,0.0,0.0,-1.0
tw897933390,-0.9999999989950353,0.0,0.0,0.0,0.0,0.0,0.0,0.0,0.0,-1.0
tw416558277,-0.9999999989950353,0.0,0.0,0.0,0.0,0.0,0.0,0.0,0.0,-1.0
tw1765404405522944000,-0.04295556716179869,0.0,-0.6666666666666666,0.0,0.0,0.0,0.0,0.0,0.0,-0.6666666666666666
tw1570494120992575495,-0.9999999989950353,0.0,0.0,0.0,0.0,0.0,0.0,0.0,0.0,-1.0
tw1001356085951774721,0.9999999988409453,0.0,0.0,1.0,0.0,0.0,0.0,0.0,0.0,0.0
tw753862173475082241,-0.9999999989950353,0.0,0.0,0.0,0.0,0.0,0.0,0.0,0.0,-1.0
tw1965745129,0.9999999988909569,0.0,0.0,0.3333333333333333,0.0,0.0,0.0,-0.3333333333333333,0.3333333333333333,0.0
tw1503343870205173767,0.3092333836574779,0.0,-0.3333333333333333,0.16666666666666666,0.0,-0.3333333333333333,0.0,0.0,0.0,0.16666666666666666
tw1766142997740007425,-0.9999999989950353,0.0,0.0,0.0,0.0,0.0,0.0,0.0,0.0,-1.0
tw1403285796,-0.9999999989950353,0.0,0.0,0.0,0.0,0.0,0.0,0.0,0.0,-1.0
tw99184995,-0.5272321241876583,0.0,0.0,-1.0,0.0,0.0,-1.0,1.0,-1.0,0.0
tw997214252187471874,-0.9999999989950353,0.0,0.0,0.0,0.0,0.0,0.0,0.0,0.0,-1.0
tw818693514535976960,0.0,0.0,0.0,0.0,0.0,0.0,0.0,0.0,0.0,0.0
tw29102066,-0.9999999989950353,0.0,0.0,0.0,0.0,0.0,0.0,0.0,0.0,-1.0
tw1674888817541513222,-0.5272321241876583,0.0,0.0,-1.0,0.0,0.0,-1.0,1.0,-1.0,0.0
tw1586341857969278980,-0.5272321241876583,0.0,0.0,-1.0,0.0,0.0,-1.0,1.0,-1.0,0.0
tw1835742314691547137,-0.9999999969398088,-0.3333333333333333,0.0,0.0,0.0,0.0,0.0,0.0,0.0,0.0
tw33386183,-0.9999999989950353,0.0,0.0,0.0,0.0,0.0,0.0,0.0,0.0,-1.0
tw827372598740795392,0.0,0.0,0.0,0.0,0.0,0.0,0.0,0.0,0.0,0.0
tw4324505358,-0.9999999989950353,0.0,0.0,0.0,0.0,0.0,0.0,0.0,0.0,-1.0
tw204106510,-0.9999999989950353,0.0,0.0,0.0,0.0,0.0,0.0,0.0,0.0,-1.0
tw1682905942562570240,-0.5272321241876583,0.0,0.0,-1.0,0.0,0.0,-1.0,1.0,-1.0,0.0
tw42550194,-0.9999999989950353,0.0,0.0,0.0,0.0,0.0,0.0,0.0,0.0,-1.0
tw811129267,-0.9999999989950353,0.0,0.0,0.0,0.0,0.0,0.0,0.0,0.0,-1.0
tw1135655353,-0.9999999989950353,0.0,0.0,0.0,0.0,0.0,0.0,0.0,0.0,-1.0
tw3370495181,-0.5272321241876583,0.0,0.0,-1.0,0.0,0.0,-1.0,1.0,-1.0,0.0
tw1562637511947472896,0.0,0.0,0.0,0.0,0.0,0.0,0.0,0.0,0.0,0.0
tw1308998409697796099,-0.9999999989950353,0.0,0.0,0.0,0.0,0.0,0.0,0.0,0.0,-1.0
tw1650492217595772928,-0.5272321241876583,0.0,0.0,-1.0,0.0,0.0,-1.0,1.0,-1.0,0.0
tw305645288,-0.5272321241876583,0.0,0.0,-1.0,0.0,0.0,-1.0,1.0,-1.0,0.0
tw565222246,-0.5272321241876583,0.0,0.0,-1.0,0.0,0.0,-1.0,1.0,-1.0,0.0
tw1500213896111611909,-0.5272321241876583,0.0,0.0,-1.0,0.0,0.0,-1.0,1.0,-1.0,0.0
tw1772643543460274177,-0.5272321241876583,0.0,0.0,-1.0,0.0,0.0,-1.0,1.0,-1.0,0.0
tw1844390286811856899,-0.5272321241876583,0.0,0.0,-1.0,0.0,0.0,-1.0,1.0,-1.0,0.0
tw757737250906046464,-0.5272321241876583,0.0,0.0,-1.0,0.0,0.0,-1.0,1.0,-1.0,0.0
tw1119936594079825920,-0.5272321241876583,0.0,0.0,-1.0,0.0,0.0,-1.0,1.0,-1.0,0.0
tw1306927030554984454,-0.5272321241876583,0.0,0.0,-1.0,0.0,0.0,-1.0,1.0,-1.0,0.0
tw1776327585548337152,-0.5272321241876583,0.0,0.0,-1.0,0.0,0.0,-1.0,1.0,-1.0,0.0
tw1852769196133752832,-0.5272321241876583,0.0,0.0,-1.0,0.0,0.0,-1.0,1.0,-1.0,0.0
tw408435784,-0.6873443275653391,0.0,0.0,-0.6666666666666666,0.0,0.0,-0.3333333333333333,0.6666666666666666,-0.3333333333333333,0.0
tw1789769050223976448,-0.5272321241876583,0.0,0.0,-1.0,0.0,0.0,-1.0,1.0,-1.0,0.0
tw1060321700284391425,-0.5272321241876583,0.0,0.0,-1.0,0.0,0.0,-1.0,1.0,-1.0,0.0
tw1450706501199269888,-0.8190395754599186,0.0,0.25,-0.25,0.0,-0.75,0.0,-0.25,-0.25,-1.0
tw1635719644357984294,-0.5272321241876583,0.0,0.0,-1.0,0.0,0.0,-1.0,1.0,-1.0,0.0
tw1276480389259898885,-0.5272321241876583,0.0,0.0,-1.0,0.0,0.0,-1.0,1.0,-1.0,0.0
tw717483861886812160,-0.5272321241876583,0.0,0.0,-1.0,0.0,0.0,-1.0,1.0,-1.0,0.0
tw3244487085,-0.5272321241876583,0.0,0.0,-1.0,0.0,0.0,-1.0,1.0,-1.0,0.0
tw762463365209796608,-0.5272321241876583,0.0,0.0,-1.0,0.0,0.0,-1.0,1.0,-1.0,0.0
tw319466133,-0.5272321241876583,0.0,0.0,-1.0,0.0,0.0,-1.0,1.0,-1.0,0.0
tw1103738144334245894,-0.5272321241876583,0.0,0.0,-1.0,0.0,0.0,-1.0,1.0,-1.0,0.0
tw759142585877364736,-0.5272321241876583,0.0,0.0,-1.0,0.0,0.0,-1.0,1.0,-1.0,0.0
tw1845413934846619662,-0.5272321241876583,0.0,0.0,-1.0,0.0,0.0,-1.0,1.0,-1.0,0.0
tw3432827320,-0.5272321240388236,0.0,0.0,-0.5,0.0,0.0,-0.5,0.5,-0.5,0.0
tw2979563907,-0.5272321241876583,0.0,0.0,-1.0,0.0,0.0,-1.0,1.0,-1.0,0.0
tw1184001800707420160,-0.5272321241876583,0.0,0.0,-1.0,0.0,0.0,-1.0,1.0,-1.0,0.0
tw2575151441,-0.5272321241876583,0.0,0.0,-1.0,0.0,0.0,-1.0,1.0,-1.0,0.0
tw1549818396266708992,-0.5272321241876583,0.0,0.0,-1.0,0.0,0.0,-1.0,1.0,-1.0,0.0
tw1815042798233518080,-0.5230838669697583,0.0,0.5,0.5,0.0,0.0,0.0,0.5,-0.5,0.0
tw1105989104074919936,-0.5272321241876583,0.0,0.0,-1.0,0.0,0.0,-1.0,1.0,-1.0,0.0
tw1609072066384232448,-0.5272321241876583,0.0,0.0,-1.0,0.0,0.0,-1.0,1.0,-1.0,0.0
tw1106178823886901249,-0.5272321241876583,0.0,0.0,-1.0,0.0,0.0,-1.0,1.0,-1.0,0.0
tw219045684,-0.7710040922100416,0.0,0.5,-0.5,0.0,-0.5,-0.5,0.5,-1.0,-0.5
tw580257541,-0.5272321241876583,0.0,0.0,-1.0,0.0,0.0,-1.0,1.0,-1.0,0.0
tw1599442321338208256,-0.6297075612484917,-0.5,0.0,-0.5,0.0,0.0,-0.5,0.5,-0.5,0.0
tw1684182838818533378,-0.5272321241876583,0.0,0.0,-1.0,0.0,0.0,-1.0,1.0,-1.0,0.0
tw732894063616266240,-0.5272321241876583,0.0,0.0,-1.0,0.0,0.0,-1.0,1.0,-1.0,0.0
tw228076207,-0.5272321241876583,0.0,0.0,-1.0,0.0,0.0,-1.0,1.0,-1.0,0.0
tw377460026,0.0,0.0,0.0,0.0,0.0,0.0,0.0,0.0,0.0,0.0
tw1255836606096949248,-0.5272321241876583,0.0,0.0,-1.0,0.0,0.0,-1.0,1.0,-1.0,0.0
tw549834851,-0.5272321241876583,0.0,0.0,-1.0,0.0,0.0,-1.0,1.0,-1.0,0.0
tw1592441881438429185,-0.5272321241876583,0.0,0.0,-1.0,0.0,0.0,-1.0,1.0,-1.0,0.0
tw1290720537451405319,-0.5272321241876583,0.0,0.0,-1.0,0.0,0.0,-1.0,1.0,-1.0,0.0
tw2617404672,-0.5272321241876583,0.0,0.0,-1.0,0.0,0.0,-1.0,1.0,-1.0,0.0
tw1495245390697971715,-0.5272321241876583,0.0,0.0,-1.0,0.0,0.0,-1.0,1.0,-1.0,0.0
tw2738479107,-0.5272321241876583,0.0,0.0,-1.0,0.0,0.0,-1.0,1.0,-1.0,0.0
tw13657922,-0.9999999985017568,0.0,0.0,0.0,0.0,0.0,0.5,0.0,0.0,-0.25
tw98332314,-0.5272321241876583,0.0,0.0,-1.0,0.0,0.0,-1.0,1.0,-1.0,0.0
tw1023916599991037952,-0.5272321241876583,0.0,0.0,-1.0,0.0,0.0,-1.0,1.0,-1.0,0.0
tw192202450,-0.7710040922100416,0.0,0.5,-0.5,0.0,-0.5,-0.5,0.5,-1.0,-0.5
tw1354174563760922635,-0.19619486962862653,0.5,0.0,-0.5,0.0,0.0,-0.5,0.5,-0.5,0.0
tw1024846617067876353,-0.5272321241876583,0.0,0.0,-1.0,0.0,0.0,-1.0,1.0,-1.0,0.0
tw1242498904463151104,-0.5272321241876583,0.0,0.0,-1.0,0.0,0.0,-1.0,1.0,-1.0,0.0
tw1581519368793505793,-0.5272321241876583,0.0,0.0,-1.0,0.0,0.0,-1.0,1.0,-1.0,0.0
tw1037315738456010752,-0.5272321241876583,0.0,0.0,-1.0,0.0,0.0,-1.0,1.0,-1.0,0.0
tw983665808827211776,-0.5272321241876583,0.0,0.0,-1.0,0.0,0.0,-1.0,1.0,-1.0,0.0
tw2504840138,-0.5272321241876583,0.0,0.0,-1.0,0.0,0.0,-1.0,1.0,-1.0,0.0
tw1320124509123452930,-0.5272321241876583,0.0,0.0,-1.0,0.0,0.0,-1.0,1.0,-1.0,0.0
tw1842144060691156992,-0.5272321241876583,0.0,0.0,-1.0,0.0,0.0,-1.0,1.0,-1.0,0.0
tw177675459,-0.5272321241876583,0.0,0.0,-1.0,0.0,0.0,-1.0,1.0,-1.0,0.0
tw135345978,-0.5272321241876583,0.0,0.0,-1.0,0.0,0.0,-1.0,1.0,-1.0,0.0
tw2788134679,-0.7340746393144773,0.0,0.5,-0.5,0.0,0.0,-0.5,1.0,-1.0,0.0
tw1353757169087377409,-0.5272321241876583,0.0,0.0,-1.0,0.0,0.0,-1.0,1.0,-1.0,0.0
tw3841944268,-0.5272321241876583,0.0,0.0,-1.0,0.0,0.0,-1.0,1.0,-1.0,0.0
tw2256242249,0.17918497073231543,0.0,0.0,0.0,0.0,0.5,-1.0,0.5,-0.5,0.0
tw831462087331307520,-0.5272321241876583,0.0,0.0,-1.0,0.0,0.0,-1.0,1.0,-1.0,0.0
tw1755820343837511680,-0.5272321241876583,0.0,0.0,-1.0,0.0,0.0,-1.0,1.0,-1.0,0.0
tw1553908727534723074,-0.5272321241876583,0.0,0.0,-1.0,0.0,0.0,-1.0,1.0,-1.0,0.0
tw1320765321591066625,-0.5272321241876583,0.0,0.0,-1.0,0.0,0.0,-1.0,1.0,-1.0,0.0
tw1715376954852139008,0.0,0.0,0.0,0.0,0.0,0.0,0.0,0.0,0.0,0.0
tw1150723454196506626,-0.5272321241876583,0.0,0.0,-1.0,0.0,0.0,-1.0,1.0,-1.0,0.0
tw404036177,-0.5272321241876583,0.0,0.0,-1.0,0.0,0.0,-1.0,1.0,-1.0,0.0
tw1454163197997555713,-0.5272321241876583,0.0,0.0,-1.0,0.0,0.0,-1.0,1.0,-1.0,0.0
tw1014019452,-0.5272321241876583,0.0,0.0,-1.0,0.0,0.0,-1.0,1.0,-1.0,0.0
tw1206973424167505921,-0.5272321241876583,0.0,0.0,-1.0,0.0,0.0,-1.0,1.0,-1.0,0.0
tw1558802917720743938,0.0,0.0,0.0,0.0,0.0,0.0,0.0,0.0,0.0,0.0
tw203503605,-0.5272321241876583,0.0,0.0,-1.0,0.0,0.0,-1.0,1.0,-1.0,0.0
tw2438193101,-0.5272321241876583,0.0,0.0,-1.0,0.0,0.0,-1.0,1.0,-1.0,0.0
tw180749085,-0.5272321241876583,0.0,0.0,-1.0,0.0,0.0,-1.0,1.0,-1.0,0.0
tw1617938740285931524,-0.6304147789786803,0.0,0.0,-0.5,-0.5,0.0,-0.5,0.5,-0.5,0.0
tw1324008875318775809,-0.5272321241876583,0.0,0.0,-1.0,0.0,0.0,-1.0,1.0,-1.0,0.0
tw1259961892652699648,-0.5272321241876583,0.0,0.0,-1.0,0.0,0.0,-1.0,1.0,-1.0,0.0
tw1874411060351860736,-0.5272321241876583,0.0,0.0,-1.0,0.0,0.0,-1.0,1.0,-1.0,0.0
tw846950955434348544,-0.5272321241876583,0.0,0.0,-1.0,0.0,0.0,-1.0,1.0,-1.0,0.0
tw915118911414243329,-0.5272321241876583,0.0,0.0,-1.0,0.0,0.0,-1.0,1.0,-1.0,0.0
tw1435716278057148416,-0.5272321241876583,0.0,0.0,-1.0,0.0,0.0,-1.0,1.0,-1.0,0.0
tw742419444,-0.5272321241876583,0.0,0.0,-1.0,0.0,0.0,-1.0,1.0,-1.0,0.0
tw1516059023426174992,-0.5272321241876583,0.0,0.0,-1.0,0.0,0.0,-1.0,1.0,-1.0,0.0
tw1603406051767980035,-0.5272321241876583,0.0,0.0,-1.0,0.0,0.0,-1.0,1.0,-1.0,0.0
tw1168578611152117766,-0.5272321241876583,0.0,0.0,-1.0,0.0,0.0,-1.0,1.0,-1.0,0.0
tw285553745,-0.5272321241876583,0.0,0.0,-1.0,0.0,0.0,-1.0,1.0,-1.0,0.0
tw1605859729112268801,-0.5272321241876583,0.0,0.0,-1.0,0.0,0.0,-1.0,1.0,-1.0,0.0
tw1864519025998606336,-0.5272321241876583,0.0,0.0,-1.0,0.0,0.0,-1.0,1.0,-1.0,0.0
tw1569709737545203716,-0.5272321241876583,0.0,0.0,-1.0,0.0,0.0,-1.0,1.0,-1.0,0.0
tw1857858880924987392,-0.5272321241876583,0.0,0.0,-1.0,0.0,0.0,-1.0,1.0,-1.0,0.0
tw994680132978855936,-0.5272321241876583,0.0,0.0,-1.0,0.0,0.0,-1.0,1.0,-1.0,0.0
tw952591232458518528,-0.5272321241876583,0.0,0.0,-1.0,0.0,0.0,-1.0,1.0,-1.0,0.0
tw818168777460383744,-0.5272321240388236,0.0,0.0,-0.5,0.0,0.0,-0.5,0.5,-0.5,0.0
tw188624478,-0.5272321241876583,0.0,0.0,-1.0,0.0,0.0,-1.0,1.0,-1.0,0.0
tw1349263102207004672,-0.5272321241876583,0.0,0.0,-1.0,0.0,0.0,-1.0,1.0,-1.0,0.0
tw1408164504718958592,-0.5272321241876583,0.0,0.0,-1.0,0.0,0.0,-1.0,1.0,-1.0,0.0
tw401562730,-0.5272321241876583,0.0,0.0,-1.0,0.0,0.0,-1.0,1.0,-1.0,0.0
tw728125017892904960,-0.5272321241876583,0.0,0.0,-1.0,0.0,0.0,-1.0,1.0,-1.0,0.0
tw926049252,-0.5272321241876583,0.0,0.0,-1.0,0.0,0.0,-1.0,1.0,-1.0,0.0
tw1305473767385202689,-0.5272321241876583,0.0,0.0,-1.0,0.0,0.0,-1.0,1.0,-1.0,0.0
tw1867139524465184768,0.9999999988409453,0.0,0.0,1.0,0.0,0.0,0.0,0.0,0.0,0.0
tw1027502677800960001,-0.5272321241876583,0.0,0.0,-1.0,0.0,0.0,-1.0,1.0,-1.0,0.0
tw356394685,-0.5272321241876583,0.0,0.0,-1.0,0.0,0.0,-1.0,1.0,-1.0,0.0
tw41113813,-0.9999999979598726,-0.5,0.0,0.0,0.0,0.0,0.0,0.0,0.0,0.0
tw1831988946303143936,-0.5272321241876583,0.0,0.0,-1.0,0.0,0.0,-1.0,1.0,-1.0,0.0
tw4327644687,-0.5272321241876583,0.0,0.0,-1.0,0.0,0.0,-1.0,1.0,-1.0,0.0
tw1221653127754969089,0.9999999988409453,0.0,0.0,1.0,0.0,0.0,0.0,0.0,0.0,0.0
tw562895083,-0.5272321241876583,0.0,0.0,-1.0,0.0,0.0,-1.0,1.0,-1.0,0.0
tw509046362,-0.5272321241876583,0.0,0.0,-1.0,0.0,0.0,-1.0,1.0,-1.0,0.0
tw1548727325642063875,-0.5272321241876583,0.0,0.0,-1.0,0.0,0.0,-1.0,1.0,-1.0,0.0
tw897828973652168704,-0.3750129932997301,0.0,0.0,0.0,0.0,0.0,-0.5,0.5,-0.5,0.0
tw1097250479086714881,-0.5272321241876583,0.0,0.0,-1.0,0.0,0.0,-1.0,1.0,-1.0,0.0
tw1360848432840245248,-0.5272321241876583,0.0,0.0,-1.0,0.0,0.0,-1.0,1.0,-1.0,0.0
tw1631703282925043713,-0.5272321241876583,0.0,0.0,-1.0,0.0,0.0,-1.0,1.0,-1.0,0.0
tw1631559840244924418,-0.5272321241876583,0.0,0.0,-1.0,0.0,0.0,-1.0,1.0,-1.0,0.0
tw1676209031126437888,-0.5272321241876583,0.0,0.0,-1.0,0.0,0.0,-1.0,1.0,-1.0,0.0
tw1415656560630501380,-0.5272321241876583,0.0,0.0,-1.0,0.0,0.0,-1.0,1.0,-1.0,0.0
tw1590810686971584525,-0.5272321241876583,0.0,0.0,-1.0,0.0,0.0,-1.0,1.0,-1.0,0.0
tw919835303279460352,-0.5272321241876583,0.0,0.0,-1.0,0.0,0.0,-1.0,1.0,-1.0,0.0
tw1314987565238296576,-0.5272321241876583,0.0,0.0,-1.0,0.0,0.0,-1.0,1.0,-1.0,0.0
tw1691500882305634304,-0.5272321241876583,0.0,0.0,-1.0,0.0,0.0,-1.0,1.0,-1.0,0.0
tw1576620047266713600,-0.5272321241876583,0.0,0.0,-1.0,0.0,0.0,-1.0,1.0,-1.0,0.0
tw971865976668028929,-0.5272321241876583,0.0,0.0,-1.0,0.0,0.0,-1.0,1.0,-1.0,0.0
tw130975086,-0.5272321241876583,0.0,0.0,-1.0,0.0,0.0,-1.0,1.0,-1.0,0.0
tw890520769029173249,-0.5272321241876583,0.0,0.0,-1.0,0.0,0.0,-1.0,1.0,-1.0,0.0
tw1465748923713298438,-0.5272321241876583,0.0,0.0,-1.0,0.0,0.0,-1.0,1.0,-1.0,0.0
tw229028453,-0.5272321241876583,0.0,0.0,-1.0,0.0,0.0,-1.0,1.0,-1.0,0.0
tw1246474313789853702,-0.5272321241876583,0.0,0.0,-1.0,0.0,0.0,-1.0,1.0,-1.0,0.0
tw2234283868,-0.31706739985352295,0.0,0.0,-0.5,0.0,-0.5,0.0,-0.5,0.0,0.0
tw1227090054,0.9999999992606379,0.0,0.0,0.5,0.0,0.0,0.0,-0.5,0.5,0.0
tw1781987116123041792,-0.5272321241876583,0.0,0.0,-1.0,0.0,0.0,-1.0,1.0,-1.0,0.0
tw1299384234902257665,-0.5272321241876583,0.0,0.0,-1.0,0.0,0.0,-1.0,1.0,-1.0,0.0
tw1096561736,-0.5272321241876583,0.0,0.0,-1.0,0.0,0.0,-1.0,1.0,-1.0,0.0
tw1454146835640111105,-0.5272321241876583,0.0,0.0,-1.0,0.0,0.0,-1.0,1.0,-1.0,0.0
tw1447665133514338305,-0.5272321241876583,0.0,0.0,-1.0,0.0,0.0,-1.0,1.0,-1.0,0.0
tw101223338,-0.5272321241876583,0.0,0.0,-1.0,0.0,0.0,-1.0,1.0,-1.0,0.0
tw1500818223079608321,0.9999999993955462,0.0,0.0,0.8,0.0,0.2,0.0,-0.6,0.0,0.2
tw1217503225290600449,-0.5272321241876583,0.0,0.0,-1.0,0.0,0.0,-1.0,1.0,-1.0,0.0
tw2547469451,-0.5272321241876583,0.0,0.0,-1.0,0.0,0.0,-1.0,1.0,-1.0,0.0
tw727020972402970624,-0.5272321241876583,0.0,0.0,-1.0,0.0,0.0,-1.0,1.0,-1.0,0.0
tw2748898377,-0.5272321241876583,0.0,0.0,-1.0,0.0,0.0,-1.0,1.0,-1.0,0.0
tw1680264275569328130,0.2616280838038822,0.5,0.0,-0.5,0.0,0.5,-1.0,0.5,-0.5,0.5
tw395447780,-0.5272321241876583,0.0,0.0,-1.0,0.0,0.0,-1.0,1.0,-1.0,0.0
tw1054771874461294593,-0.5272321241876583,0.0,0.0,-1.0,0.0,0.0,-1.0,1.0,-1.0,0.0
tw307307795,-0.5272321241876583,0.0,0.0,-1.0,0.0,0.0,-1.0,1.0,-1.0,0.0
tw214587059,-0.5272321241876583,0.0,0.0,-1.0,0.0,0.0,-1.0,1.0,-1.0,0.0
tw1633997955920166912,-0.5272321241876583,0.0,0.0,-1.0,0.0,0.0,-1.0,1.0,-1.0,0.0
tw34015635,-0.5272321241876583,0.0,0.0,-1.0,0.0,0.0,-1.0,1.0,-1.0,0.0
tw1156190465710022656,-0.5272321241876583,0.0,0.0,-1.0,0.0,0.0,-1.0,1.0,-1.0,0.0
tw798820362242797568,-0.619825725212994,0.0,0.0,-1.0,0.0,0.0,-0.5,0.5,-0.5,0.0
tw2424477356,-0.5272321241876583,0.0,0.0,-1.0,0.0,0.0,-1.0,1.0,-1.0,0.0
tw843848848875425794,-0.5272321241876583,0.0,0.0,-1.0,0.0,0.0,-1.0,1.0,-1.0,0.0
tw1243119034457042945,-0.5272321241876583,0.0,0.0,-1.0,0.0,0.0,-1.0,1.0,-1.0,0.0
tw1334505380395696133,-0.5272321241876583,0.0,0.0,-1.0,0.0,0.0,-1.0,1.0,-1.0,0.0
tw747053076629028864,-0.6297075612484917,-0.5,0.0,-0.5,0.0,0.0,-0.5,0.5,-0.5,0.0
tw1020740869777960961,-0.5272321241876583,0.0,0.0,-1.0,0.0,0.0,-1.0,1.0,-1.0,0.0
tw1084176549161648128,-0.5272321241876583,0.0,0.0,-1.0,0.0,0.0,-1.0,1.0,-1.0,0.0
tw1361949345063518209,-0.7710040922100416,0.0,0.5,-0.5,0.0,-0.5,-0.5,0.5,-1.0,-0.5
tw889538194265526272,-0.5272321241876583,0.0,0.0,-1.0,0.0,0.0,-1.0,1.0,-1.0,0.0
tw2647949986,-0.5272321241876583,0.0,0.0,-1.0,0.0,0.0,-1.0,1.0,-1.0,0.0
tw349572556,-0.5272321241876583,0.0,0.0,-1.0,0.0,0.0,-1.0,1.0,-1.0,0.0
tw3271515217,0.9999999996434038,0.0,0.0,0.0,0.0,1.0,-1.0,0.0,0.0,1.0
tw1053200515394428928,-0.5272321241876583,0.0,0.0,-1.0,0.0,0.0,-1.0,1.0,-1.0,0.0
tw797313190774325248,-0.5272321241876583,0.0,0.0,-1.0,0.0,0.0,-1.0,1.0,-1.0,0.0
tw1823090363382329345,-0.5272321241876583,0.0,0.0,-1.0,0.0,0.0,-1.0,1.0,-1.0,0.0
tw22127591,0.9999999996458451,0.0,0.0,1.0,1.0,1.0,0.0,0.0,0.0,0.0
tw988557859628703744,-0.5272321241876583,0.0,0.0,-1.0,0.0,0.0,-1.0,1.0,-1.0,0.0
tw1830893124400431104,-0.5272321241876583,0.0,0.0,-1.0,0.0,0.0,-1.0,1.0,-1.0,0.0
tw1785439028952682498,0.17918497073231543,0.0,0.0,0.0,0.0,0.5,-1.0,0.5,-0.5,0.0
tw1552407524770471943,-0.5272321241876583,0.0,0.0,-1.0,0.0,0.0,-1.0,1.0,-1.0,0.0
tw1243597548453011456,-0.5272321241876583,0.0,0.0,-1.0,0.0,0.0,-1.0,1.0,-1.0,0.0
tw1119949765951852545,-0.5272321241876583,0.0,0.0,-1.0,0.0,0.0,-1.0,1.0,-1.0,0.0
tw1252547021401137153,-0.5272321241876583,0.0,0.0,-1.0,0.0,0.0,-1.0,1.0,-1.0,0.0
tw629119415,-0.5272321241876583,0.0,0.0,-1.0,0.0,0.0,-1.0,1.0,-1.0,0.0
tw256536659,-0.5272321241876583,0.0,0.0,-1.0,0.0,0.0,-1.0,1.0,-1.0,0.0
tw2545379226,0.9999999997859571,0.0,0.0,1.0,0.0,1.0,0.0,-1.0,1.0,1.0
tw573735828,-0.10041654214826348,0.0,-0.3333333333333333,-0.3333333333333333,0.0,0.3333333333333333,-0.3333333333333333,0.6666666666666666,-0.6666666666666666,0.3333333333333333
tw1208527206584127488,-0.5272321241876583,0.0,0.0,-1.0,0.0,0.0,-1.0,1.0,-1.0,0.0
tw1370170771,0.9999999994472794,0.0,0.0,0.0,0.0,1.0,-1.0,0.0,0.0,0.0
tw836032540964241409,-0.5272321241876583,0.0,0.0,-1.0,0.0,0.0,-1.0,1.0,-1.0,0.0
tw724176341617283072,-0.5272321241876583,0.0,0.0,-1.0,0.0,0.0,-1.0,1.0,-1.0,0.0
tw1596819723441913856,-0.5272321241876583,0.0,0.0,-1.0,0.0,0.0,-1.0,1.0,-1.0,0.0
tw1318849817121050625,-0.5272321241876583,0.0,0.0,-1.0,0.0,0.0,-1.0,1.0,-1.0,0.0
tw1533888479721140224,-0.5272321241876583,0.0,0.0,-1.0,0.0,0.0,-1.0,1.0,-1.0,0.0
tw1203419328173027336,-0.5272321241876583,0.0,0.0,-1.0,0.0,0.0,-1.0,1.0,-1.0,0.0
tw3885822377,-0.5272321241876583,0.0,0.0,-1.0,0.0,0.0,-1.0,1.0,-1.0,0.0
tw1645756046881767427,-0.5272321241876583,0.0,0.0,-1.0,0.0,0.0,-1.0,1.0,-1.0,0.0
tw56173382,-0.5272321240388236,0.0,0.0,-0.5,0.0,0.0,-0.5,0.5,-0.5,0.0
tw1103405229553401856,-0.5272321241876583,0.0,0.0,-1.0,0.0,0.0,-1.0,1.0,-1.0,0.0
tw1139213278322802688,-0.5272321241876583,0.0,0.0,-1.0,0.0,0.0,-1.0,1.0,-1.0,0.0
tw203013335,-0.5272321241876583,0.0,0.0,-1.0,0.0,0.0,-1.0,1.0,-1.0,0.0
tw1750850552081137664,-0.5272321241876583,0.0,0.0,-1.0,0.0,0.0,-1.0,1.0,-1.0,0.0
tw349835985,-0.5272321241876583,0.0,0.0,-1.0,0.0,0.0,-1.0,1.0,-1.0,0.0
tw1094556236308271104,-0.5272321241876583,0.0,0.0,-1.0,0.0,0.0,-1.0,1.0,-1.0,0.0
tw1732468250737319936,-0.5272321241876583,0.0,0.0,-1.0,0.0,0.0,-1.0,1.0,-1.0,0.0
tw1474018264606937090,-0.5272321241876583,0.0,0.0,-1.0,0.0,0.0,-1.0,1.0,-1.0,0.0
tw357268483,-0.5272321241876583,0.0,0.0,-1.0,0.0,0.0,-1.0,1.0,-1.0,0.0
tw1129334992998469633,-0.5272321241876583,0.0,0.0,-1.0,0.0,0.0,-1.0,1.0,-1.0,0.0
tw945555751,-0.5272321241876583,0.0,0.0,-1.0,0.0,0.0,-1.0,1.0,-1.0,0.0
tw833952685455990789,-0.5272321241876583,0.0,0.0,-1.0,0.0,0.0,-1.0,1.0,-1.0,0.0
tw1516050552962138114,-0.5272321241876583,0.0,0.0,-1.0,0.0,0.0,-1.0,1.0,-1.0,0.0
tw3362591548,0.6765176862277595,0.0,0.25,0.25,0.0,0.25,0.0,-0.5,0.0,0.25
tw1343113777,-0.5272321241876583,0.0,0.0,-1.0,0.0,0.0,-1.0,1.0,-1.0,0.0
tw1007789241647226882,-0.5272321241876583,0.0,0.0,-1.0,0.0,0.0,-1.0,1.0,-1.0,0.0
tw1496839151081205765,-0.5272321241876583,0.0,0.0,-1.0,0.0,0.0,-1.0,1.0,-1.0,0.0
tw746371177174679552,0.9999999989488133,0.0,0.0,0.0,0.0,0.0,0.0,-1.0,0.0,0.0
tw1455154979711459330,0.9999999989888627,0.0,0.0,0.0,1.0,0.0,0.0,0.0,0.0,0.0
tw1167921379,-0.6297075612484917,-0.5,0.0,-0.5,0.0,0.0,-0.5,0.5,-0.5,0.0
tw1333683354823221249,-0.5272321241876583,0.0,0.0,-1.0,0.0,0.0,-1.0,1.0,-1.0,0.0
tw1788634269423751168,-0.5272321241876583,0.0,0.0,-1.0,0.0,0.0,-1.0,1.0,-1.0,0.0
tw28354422,-0.7340746393144773,0.0,0.5,-0.5,0.0,0.0,-0.5,1.0,-1.0,0.0
tw830510389846753287,-0.5272321241876583,0.0,0.0,-1.0,0.0,0.0,-1.0,1.0,-1.0,0.0
tw1212661072227778560,-0.5272321241876583,0.0,0.0,-1.0,0.0,0.0,-1.0,1.0,-1.0,0.0
tw378327525,-0.5272321241876583,0.0,0.0,-1.0,0.0,0.0,-1.0,1.0,-1.0,0.0
tw937714025034600448,-0.5272321241876583,0.0,0.0,-1.0,0.0,0.0,-1.0,1.0,-1.0,0.0
tw762177796164706304,-0.5272321241876583,0.0,0.0,-1.0,0.0,0.0,-1.0,1.0,-1.0,0.0
tw625796577,-0.5272321241876583,0.0,0.0,-1.0,0.0,0.0,-1.0,1.0,-1.0,0.0
tw1053054872726241280,-0.5272321241876583,0.0,0.0,-1.0,0.0,0.0,-1.0,1.0,-1.0,0.0
tw1523266003337158657,-0.5272321241876583,0.0,0.0,-1.0,0.0,0.0,-1.0,1.0,-1.0,0.0
tw1238701844106526721,-0.5272321241876583,0.0,0.0,-1.0,0.0,0.0,-1.0,1.0,-1.0,0.0
tw1796517119095373824,-0.5272321241876583,0.0,0.0,-1.0,0.0,0.0,-1.0,1.0,-1.0,0.0
tw1377562539760959492,-0.5272321241876583,0.0,0.0,-1.0,0.0,0.0,-1.0,1.0,-1.0,0.0
tw1600261628339146761,-0.5272321241876583,0.0,0.0,-1.0,0.0,0.0,-1.0,1.0,-1.0,0.0
tw753681646579228676,-0.5272321241876583,0.0,0.0,-1.0,0.0,0.0,-1.0,1.0,-1.0,0.0
tw201204167,0.6164139540464583,-0.1,0.1,-0.1,0.0,0.3,-0.7,-0.1,0.1,0.1
tw776386743000035328,-0.5272321241876583,0.0,0.0,-1.0,0.0,0.0,-1.0,1.0,-1.0,0.0
tw119703789,-0.5272321241876583,0.0,0.0,-1.0,0.0,0.0,-1.0,1.0,-1.0,0.0
tw4153218326,-0.5272321241876583,0.0,0.0,-1.0,0.0,0.0,-1.0,1.0,-1.0,0.0
tw1838651092219170816,-0.5272321241876583,0.0,0.0,-1.0,0.0,0.0,-1.0,1.0,-1.0,0.0
tw1236214832455708674,-0.5272321241876583,0.0,0.0,-1.0,0.0,0.0,-1.0,1.0,-1.0,0.0
tw1026900231735132160,-0.5272321241876583,0.0,0.0,-1.0,0.0,0.0,-1.0,1.0,-1.0,0.0
tw213330488,-0.3750129932997301,0.0,0.0,0.0,0.0,0.0,-0.5,0.5,-0.5,0.0
tw1107930663204937728,-0.5272321241876583,0.0,0.0,-1.0,0.0,0.0,-1.0,1.0,-1.0,0.0
tw1531925169396137985,-0.5272321241876583,0.0,0.0,-1.0,0.0,0.0,-1.0,1.0,-1.0,0.0
tw596622481,0.17918497073231543,0.0,0.0,0.0,0.0,0.5,-1.0,0.5,-0.5,0.0
tw948983463826378752,-0.5272321241876583,0.0,0.0,-1.0,0.0,0.0,-1.0,1.0,-1.0,0.0
tw2816370939,-0.5272321241876583,0.0,0.0,-1.0,0.0,0.0,-1.0,1.0,-1.0,0.0
tw428922968,-0.5272321241876583,0.0,0.0,-1.0,0.0,0.0,-1.0,1.0,-1.0,0.0
tw282489876,-0.5272321241876583,0.0,0.0,-1.0,0.0,0.0,-1.0,1.0,-1.0,0.0
tw1450685689239048198,-0.5272321241876583,0.0,0.0,-1.0,0.0,0.0,-1.0,1.0,-1.0,0.0
tw1348940364,-0.5272321241876583,0.0,0.0,-1.0,0.0,0.0,-1.0,1.0,-1.0,0.0
tw1281890346658603008,-0.5272321241876583,0.0,0.0,-1.0,0.0,0.0,-1.0,1.0,-1.0,0.0
tw1022084930937999361,-0.5272321241876583,0.0,0.0,-1.0,0.0,0.0,-1.0,1.0,-1.0,0.0
tw1266153682116239361,-0.5272321241876583,0.0,0.0,-1.0,0.0,0.0,-1.0,1.0,-1.0,0.0
tw264151674,0.17918497073231543,0.0,0.0,0.0,0.0,0.5,-1.0,0.5,-0.5,0.0
tw489763776,-0.5272321241876583,0.0,0.0,-1.0,0.0,0.0,-1.0,1.0,-1.0,0.0
tw360901500,-0.5272321241876583,0.0,0.0,-1.0,0.0,0.0,-1.0,1.0,-1.0,0.0
tw140935701,-0.5272321241876583,0.0,0.0,-1.0,0.0,0.0,-1.0,1.0,-1.0,0.0
tw4830509043,-0.5272321241876583,0.0,0.0,-1.0,0.0,0.0,-1.0,1.0,-1.0,0.0
tw873135988440223745,0.5234404048795126,0.0,0.0,1.0,0.0,0.0,0.5,-0.5,0.0,0.0
tw637223231,-0.5272321241876583,0.0,0.0,-1.0,0.0,0.0,-1.0,1.0,-1.0,0.0
tw992805627524272129,-0.5272321241876583,0.0,0.0,-1.0,0.0,0.0,-1.0,1.0,-1.0,0.0
tw4909286477,-0.619825725212994,0.0,0.0,-1.0,0.0,0.0,-0.5,0.5,-0.5,0.0
tw3337555635,-0.5272321241876583,0.0,0.0,-1.0,0.0,0.0,-1.0,1.0,-1.0,0.0
tw1047249775748419584,-0.5272321241876583,0.0,0.0,-1.0,0.0,0.0,-1.0,1.0,-1.0,0.0
tw1700514055876702208,-0.5272321241876583,0.0,0.0,-1.0,0.0,0.0,-1.0,1.0,-1.0,0.0
tw1483400361318793218,-0.5272321241876583,0.0,0.0,-1.0,0.0,0.0,-1.0,1.0,-1.0,0.0
tw1609906011044814848,-0.5272321241876583,0.0,0.0,-1.0,0.0,0.0,-1.0,1.0,-1.0,0.0
tw1648409984256835584,-0.5272321241876583,0.0,0.0,-1.0,0.0,0.0,-1.0,1.0,-1.0,0.0
tw1207856252308602880,-0.5272321241876583,0.0,0.0,-1.0,0.0,0.0,-1.0,1.0,-1.0,0.0
tw815075426108342277,-0.5272321241876583,0.0,0.0,-1.0,0.0,0.0,-1.0,1.0,-1.0,0.0
tw1688741413314314240,-0.5272321241876583,0.0,0.0,-1.0,0.0,0.0,-1.0,1.0,-1.0,0.0
tw941764796873084929,-0.5272321241876583,0.0,0.0,-1.0,0.0,0.0,-1.0,1.0,-1.0,0.0
tw1492225707031859208,-0.5272321241876583,0.0,0.0,-1.0,0.0,0.0,-1.0,1.0,-1.0,0.0
tw1837846254392410112,-0.5272321241876583,0.0,0.0,-1.0,0.0,0.0,-1.0,1.0,-1.0,0.0
tw1423193340,-0.5272321241876583,0.0,0.0,-1.0,0.0,0.0,-1.0,1.0,-1.0,0.0
tw2606558951,-0.5272321241876583,0.0,0.0,-1.0,0.0,0.0,-1.0,1.0,-1.0,0.0
tw1014279494,-0.5272321241876583,0.0,0.0,-1.0,0.0,0.0,-1.0,1.0,-1.0,0.0
tw2573464246,-0.5272321241876583,0.0,0.0,-1.0,0.0,0.0,-1.0,1.0,-1.0,0.0
tw2724545262,0.9999999994472794,0.0,0.0,0.0,0.0,1.0,-1.0,0.0,0.0,0.0
tw3411320289,-0.5272321241876583,0.0,0.0,-1.0,0.0,0.0,-1.0,1.0,-1.0,0.0
tw1267951196024774657,-0.5272321241876583,0.0,0.0,-1.0,0.0,0.0,-1.0,1.0,-1.0,0.0
tw1281686016353591297,0.17918497073231543,0.0,0.0,0.0,0.0,0.5,-1.0,0.5,-0.5,0.0
tw1547091920509435904,-0.5272321241876583,0.0,0.0,-1.0,0.0,0.0,-1.0,1.0,-1.0,0.0
tw45088529,-0.6297075612484917,-0.5,0.0,-0.5,0.0,0.0,-0.5,0.5,-0.5,0.0
tw279756629,-0.5272321241876583,0.0,0.0,-1.0,0.0,0.0,-1.0,1.0,-1.0,0.0
tw1525479331383877632,0.9999999993654102,0.0,0.0,0.0,0.0,0.6666666666666666,-0.3333333333333333,-0.3333333333333333,0.0,0.3333333333333333
tw1535024792855883776,-0.5272321241876583,0.0,0.0,-1.0,0.0,0.0,-1.0,1.0,-1.0,0.0
tw1548834877809872897,-0.5272321241876583,0.0,0.0,-1.0,0.0,0.0,-1.0,1.0,-1.0,0.0
tw1459259556081586185,-0.5272321241876583,0.0,0.0,-1.0,0.0,0.0,-1.0,1.0,-1.0,0.0
tw727858523237953541,-0.5272321241876583,0.0,0.0,-1.0,0.0,0.0,-1.0,1.0,-1.0,0.0
tw732652033,-0.5272321241876583,0.0,0.0,-1.0,0.0,0.0,-1.0,1.0,-1.0,0.0
tw1605071040765370368,-0.5272321241876583,0.0,0.0,-1.0,0.0,0.0,-1.0,1.0,-1.0,0.0
tw1533658098409275392,-0.5272321241876583,0.0,0.0,-1.0,0.0,0.0,-1.0,1.0,-1.0,0.0
tw1799900568170749953,-0.5272321241876583,0.0,0.0,-1.0,0.0,0.0,-1.0,1.0,-1.0,0.0
tw1197468938059370496,-0.5272321241876583,0.0,0.0,-1.0,0.0,0.0,-1.0,1.0,-1.0,0.0
tw1553189499546525697,-0.5272321241876583,0.0,0.0,-1.0,0.0,0.0,-1.0,1.0,-1.0,0.0
tw2161504899,-0.5272321241876583,0.0,0.0,-1.0,0.0,0.0,-1.0,1.0,-1.0,0.0
tw1368571807129829378,-0.5272321241876583,0.0,0.0,-1.0,0.0,0.0,-1.0,1.0,-1.0,0.0
tw1099324681553920005,-0.5272321241876583,0.0,0.0,-1.0,0.0,0.0,-1.0,1.0,-1.0,0.0
tw1303235578440417282,-0.5272321241876583,0.0,0.0,-1.0,0.0,0.0,-1.0,1.0,-1.0,0.0
tw1790474684347125763,0.15859349527284278,0.0,0.0,-0.5,0.0,0.5,-1.0,0.0,-1.0,0.5
tw1745146840272494592,-0.5272321241876583,0.0,0.0,-1.0,0.0,0.0,-1.0,1.0,-1.0,0.0
tw81944324,-0.19304411894377932,0.0,0.0,-0.4,0.0,0.4,-0.4,0.2,-0.6,0.0
tw177738699,-0.5272321241876583,0.0,0.0,-1.0,0.0,0.0,-1.0,1.0,-1.0,0.0
tw765439719794540545,-0.5272321241876583,0.0,0.0,-1.0,0.0,0.0,-1.0,1.0,-1.0,0.0
tw1312792725142544388,-0.5272321241876583,0.0,0.0,-1.0,0.0,0.0,-1.0,1.0,-1.0,0.0
tw1244161033218019328,-0.5272321240388236,0.0,0.0,-0.5,0.0,0.0,-0.5,0.5,-0.5,0.0
tw1266116188750430208,-0.5272321241876583,0.0,0.0,-1.0,0.0,0.0,-1.0,1.0,-1.0,0.0
tw1564585201371680769,-0.5272321241876583,0.0,0.0,-1.0,0.0,0.0,-1.0,1.0,-1.0,0.0
tw446404859,-0.5272321241876583,0.0,0.0,-1.0,0.0,0.0,-1.0,1.0,-1.0,0.0
tw1000974083767619586,-0.5272321241876583,0.0,0.0,-1.0,0.0,0.0,-1.0,1.0,-1.0,0.0
tw2204197481,-0.5272321241876583,0.0,0.0,-1.0,0.0,0.0,-1.0,1.0,-1.0,0.0
tw1534264239183077377,-0.5272321241876583,0.0,0.0,-1.0,0.0,0.0,-1.0,1.0,-1.0,0.0
tw1267231534743945217,-0.7696593153100975,0.0,0.0,-0.3333333333333333,0.0,0.0,-0.3333333333333333,0.6666666666666666,-1.0,-0.3333333333333333
tw363919515,-0.5272321241876583,0.0,0.0,-1.0,0.0,0.0,-1.0,1.0,-1.0,0.0
tw148262795,-0.5272321241876583,0.0,0.0,-1.0,0.0,0.0,-1.0,1.0,-1.0,0.0
tw1196416091507044354,0.2616280838038822,0.5,0.0,-0.5,0.0,0.5,-1.0,0.5,-0.5,0.5
tw1188467539388571648,-0.5272321241876583,0.0,0.0,-1.0,0.0,0.0,-1.0,1.0,-1.0,0.0
tw441275299,-0.5272321241876583,0.0,0.0,-1.0,0.0,0.0,-1.0,1.0,-1.0,0.0
tw172747142,0.0,0.0,0.0,0.0,0.0,0.0,0.0,0.0,0.0,0.0
tw188901685,-0.5272321241876583,0.0,0.0,-1.0,0.0,0.0,-1.0,1.0,-1.0,0.0
tw1496163986395570185,0.9999999989888627,0.0,0.0,0.0,1.0,0.0,0.0,0.0,0.0,0.0
tw1773030515588632576,-0.5272321241876583,0.0,0.0,-1.0,0.0,0.0,-1.0,1.0,-1.0,0.0
tw23682667,0.9999999994472794,0.0,0.0,0.0,0.0,1.0,-1.0,0.0,0.0,0.0
tw431548945,-0.5272321241876583,0.0,0.0,-1.0,0.0,0.0,-1.0,1.0,-1.0,0.0
tw1526617848742813699,-0.5272321241876583,0.0,0.0,-1.0,0.0,0.0,-1.0,1.0,-1.0,0.0
tw1075819305395195906,-0.5272321241876583,0.0,0.0,-1.0,0.0,0.0,-1.0,1.0,-1.0,0.0
tw1443706803582275584,0.9999999994472794,0.0,0.0,0.0,0.0,1.0,-1.0,0.0,0.0,0.0
tw257644030,-0.2555214452068745,0.0,-0.5,-0.5,0.0,0.5,-0.5,0.5,-1.0,-0.5
tw372191958,-0.5272321241876583,0.0,0.0,-1.0,0.0,0.0,-1.0,1.0,-1.0,0.0
tw625542960,0.9999999994472794,0.0,0.0,0.0,0.0,1.0,-1.0,0.0,0.0,0.0
tw1381705437502918664,-0.34855948507231516,-0.5,0.0,0.0,-0.5,0.0,0.0,-0.5,0.0,0.0
tw311587814,0.0,0.0,0.0,0.0,0.0,0.0,0.0,0.0,0.0,0.0
tw2728464507,-0.19231193788466958,0.0,0.0,-0.5,0.0,0.0,-0.5,0.5,-0.5,0.5
tw1729792851028942849,0.9999999994472794,0.0,0.0,0.0,0.0,1.0,-1.0,0.0,0.0,0.0
tw2340079776,0.0,0.0,0.0,0.0,0.0,0.0,0.0,0.0,0.0,0.0
tw1276175778162622464,0.9999999994472794,0.0,0.0,0.0,0.0,1.0,-1.0,0.0,0.0,0.0
tw1550256046517657602,-0.5272321241876583,0.0,0.0,-1.0,0.0,0.0,-1.0,1.0,-1.0,0.0
tw3965325201,-0.5272321241876583,0.0,0.0,-1.0,0.0,0.0,-1.0,1.0,-1.0,0.0
tw1547296591714963456,-0.5272321241876583,0.0,0.0,-1.0,0.0,0.0,-1.0,1.0,-1.0,0.0
tw1465304754272227329,-0.5272321241876583,0.0,0.0,-1.0,0.0,0.0,-1.0,1.0,-1.0,0.0
tw1060675398512623616,-0.5272321241876583,0.0,0.0,-1.0,0.0,0.0,-1.0,1.0,-1.0,0.0
tw856086455936069633,-0.5272321241876583,0.0,0.0,-1.0,0.0,0.0,-1.0,1.0,-1.0,0.0
tw1538136462650224640,-0.5272321241876583,0.0,0.0,-1.0,0.0,0.0,-1.0,1.0,-1.0,0.0
tw982141581019922432,-0.5272321241876583,0.0,0.0,-1.0,0.0,0.0,-1.0,1.0,-1.0,0.0
tw25587376,-0.5272321241876583,0.0,0.0,-1.0,0.0,0.0,-1.0,1.0,-1.0,0.0
tw4271905167,-0.5272321241876583,0.0,0.0,-1.0,0.0,0.0,-1.0,1.0,-1.0,0.0
tw2188789383,-0.5272321241876583,0.0,0.0,-1.0,0.0,0.0,-1.0,1.0,-1.0,0.0
tw1867948950222970880,-0.5272321240388236,0.0,0.0,-0.5,0.0,0.0,-0.5,0.5,-0.5,0.0
tw95649370,-0.5272321241876583,0.0,0.0,-1.0,0.0,0.0,-1.0,1.0,-1.0,0.0
tw225109245,-0.5272321241876583,0.0,0.0,-1.0,0.0,0.0,-1.0,1.0,-1.0,0.0
tw230492969,-0.5272321241876583,0.0,0.0,-1.0,0.0,0.0,-1.0,1.0,-1.0,0.0
tw1053594763214184448,-0.7696593153100975,0.0,0.0,-0.3333333333333333,0.0,0.0,-0.3333333333333333,0.6666666666666666,-1.0,-0.3333333333333333
tw39282539,-0.5272321241876583,0.0,0.0,-1.0,0.0,0.0,-1.0,1.0,-1.0,0.0
tw1178320652874502144,-0.5272321241876583,0.0,0.0,-1.0,0.0,0.0,-1.0,1.0,-1.0,0.0
tw1401141237084831744,-0.5272321241876583,0.0,0.0,-1.0,0.0,0.0,-1.0,1.0,-1.0,0.0
tw1325793164976943105,-0.5272321241876583,0.0,0.0,-1.0,0.0,0.0,-1.0,1.0,-1.0,0.0
tw1844463304200290305,-0.5272321241876583,0.0,0.0,-1.0,0.0,0.0,-1.0,1.0,-1.0,0.0
tw1034750648896679937,-0.7661159745101002,0.0,0.3333333333333333,-0.6666666666666666,0.0,0.0,-0.3333333333333333,0.6666666666666666,-0.6666666666666666,0.0
tw1689369034570014720,-0.5272321241876583,0.0,0.0,-1.0,0.0,0.0,-1.0,1.0,-1.0,0.0
tw877494423424204804,-0.5272321241876583,0.0,0.0,-1.0,0.0,0.0,-1.0,1.0,-1.0,0.0
tw1324145464573308928,-0.5272321241876583,0.0,0.0,-1.0,0.0,0.0,-1.0,1.0,-1.0,0.0
tw1750833803617054720,-0.5272321241876583,0.0,0.0,-1.0,0.0,0.0,-1.0,1.0,-1.0,0.0
tw1547884677460922370,-0.5272321241876583,0.0,0.0,-1.0,0.0,0.0,-1.0,1.0,-1.0,0.0
tw1202620336623247360,-0.5272321241876583,0.0,0.0,-1.0,0.0,0.0,-1.0,1.0,-1.0,0.0
tw215557090,-0.5272321241876583,0.0,0.0,-1.0,0.0,0.0,-1.0,1.0,-1.0,0.0
tw2319732310,-0.5272321241876583,0.0,0.0,-1.0,0.0,0.0,-1.0,1.0,-1.0,0.0
tw411632889,-0.5272321241876583,0.0,0.0,-1.0,0.0,0.0,-1.0,1.0,-1.0,0.0
tw1154381972313116673,-0.5272321241876583,0.0,0.0,-1.0,0.0,0.0,-1.0,1.0,-1.0,0.0
tw1805882447898271744,-0.5272321241876583,0.0,0.0,-1.0,0.0,0.0,-1.0,1.0,-1.0,0.0
tw360875725,-0.5272321241876583,0.0,0.0,-1.0,0.0,0.0,-1.0,1.0,-1.0,0.0
tw1228589360,-0.5272321241876583,0.0,0.0,-1.0,0.0,0.0,-1.0,1.0,-1.0,0.0
tw753496412,-0.5272321241876583,0.0,0.0,-1.0,0.0,0.0,-1.0,1.0,-1.0,0.0
tw240733133,-0.5272321241876583,0.0,0.0,-1.0,0.0,0.0,-1.0,1.0,-1.0,0.0
tw1519213216529846274,-0.5272321241876583,0.0,0.0,-1.0,0.0,0.0,-1.0,1.0,-1.0,0.0
tw181105841,-0.5272321241876583,0.0,0.0,-1.0,0.0,0.0,-1.0,1.0,-1.0,0.0
tw3104041118,-0.5272321241876583,0.0,0.0,-1.0,0.0,0.0,-1.0,1.0,-1.0,0.0
tw263512977,-0.7710040922100416,0.0,0.5,-0.5,0.0,-0.5,-0.5,0.5,-1.0,-0.5
tw524081301,-0.5272321241876583,0.0,0.0,-1.0,0.0,0.0,-1.0,1.0,-1.0,0.0
tw1326798859738243073,-0.5272321241876583,0.0,0.0,-1.0,0.0,0.0,-1.0,1.0,-1.0,0.0
tw3694690397,-0.5272321241876583,0.0,0.0,-1.0,0.0,0.0,-1.0,1.0,-1.0,0.0
tw556825504,-0.5272321241876583,0.0,0.0,-1.0,0.0,0.0,-1.0,1.0,-1.0,0.0
tw841817845,-0.5272321241876583,0.0,0.0,-1.0,0.0,0.0,-1.0,1.0,-1.0,0.0
tw1221030268494143489,-0.5272321241876583,0.0,0.0,-1.0,0.0,0.0,-1.0,1.0,-1.0,0.0
tw1331813773,-0.5272321241876583,0.0,0.0,-1.0,0.0,0.0,-1.0,1.0,-1.0,0.0
tw1572988557794463746,-0.7340746393144773,0.0,0.5,-0.5,0.0,0.0,-0.5,1.0,-1.0,0.0
tw823158104900698118,-0.5272321241876583,0.0,0.0,-1.0,0.0,0.0,-1.0,1.0,-1.0,0.0
tw1497869757588160512,-0.5272321241876583,0.0,0.0,-1.0,0.0,0.0,-1.0,1.0,-1.0,0.0
tw615207654,-0.5272321241876583,0.0,0.0,-1.0,0.0,0.0,-1.0,1.0,-1.0,0.0
tw776149240913489921,-0.5272321241876583,0.0,0.0,-1.0,0.0,0.0,-1.0,1.0,-1.0,0.0
tw1004998628098957312,-0.5272321241876583,0.0,0.0,-1.0,0.0,0.0,-1.0,1.0,-1.0,0.0
tw1265101873029222400,-0.5272321241876583,0.0,0.0,-1.0,0.0,0.0,-1.0,1.0,-1.0,0.0
tw60042646,-0.5272321241876583,0.0,0.0,-1.0,0.0,0.0,-1.0,1.0,-1.0,0.0
tw1291404708,-0.5272321241876583,0.0,0.0,-1.0,0.0,0.0,-1.0,1.0,-1.0,0.0
tw173497871,-0.5272321241876583,0.0,0.0,-1.0,0.0,0.0,-1.0,1.0,-1.0,0.0
tw1877751186889338880,-0.5272321241876583,0.0,0.0,-1.0,0.0,0.0,-1.0,1.0,-1.0,0.0
tw952549917238710272,-0.5272321241876583,0.0,0.0,-1.0,0.0,0.0,-1.0,1.0,-1.0,0.0
tw450945851,-0.5272321241876583,0.0,0.0,-1.0,0.0,0.0,-1.0,1.0,-1.0,0.0
tw1545016299553685504,-0.5272321241876583,0.0,0.0,-1.0,0.0,0.0,-1.0,1.0,-1.0,0.0
tw1614406612726300672,-0.5272321241876583,0.0,0.0,-1.0,0.0,0.0,-1.0,1.0,-1.0,0.0
tw583006358,0.0,0.0,0.0,0.0,0.0,0.0,0.0,0.0,0.0,0.0
tw585181904,-0.5272321241876583,0.0,0.0,-1.0,0.0,0.0,-1.0,1.0,-1.0,0.0
tw1583484607030247425,-0.5272321241876583,0.0,0.0,-1.0,0.0,0.0,-1.0,1.0,-1.0,0.0
tw1607908747397181440,-0.5272321241876583,0.0,0.0,-1.0,0.0,0.0,-1.0,1.0,-1.0,0.0
tw1550393461496504321,-0.5272321241876583,0.0,0.0,-1.0,0.0,0.0,-1.0,1.0,-1.0,0.0
tw2829156298,-0.5272321241876583,0.0,0.0,-1.0,0.0,0.0,-1.0,1.0,-1.0,0.0
tw3345569512,-0.5272321241876583,0.0,0.0,-1.0,0.0,0.0,-1.0,1.0,-1.0,0.0
tw977440602538283008,-0.5272321241876583,0.0,0.0,-1.0,0.0,0.0,-1.0,1.0,-1.0,0.0
tw2429901047,-0.5272321240388236,0.0,0.0,-0.5,0.0,0.0,-0.5,0.5,-0.5,0.0
tw1487580621660729345,-0.5272321241876583,0.0,0.0,-1.0,0.0,0.0,-1.0,1.0,-1.0,0.0
tw2972204464,-0.5272321241876583,0.0,0.0,-1.0,0.0,0.0,-1.0,1.0,-1.0,0.0
tw593466512,-0.5272321241876583,0.0,0.0,-1.0,0.0,0.0,-1.0,1.0,-1.0,0.0
tw2499957583,0.0,0.0,0.0,0.0,0.0,0.0,0.0,0.0,0.0,0.0
tw3182299725,-0.5272321241876583,0.0,0.0,-1.0,0.0,0.0,-1.0,1.0,-1.0,0.0
tw1577732400,-0.5272321241876583,0.0,0.0,-1.0,0.0,0.0,-1.0,1.0,-1.0,0.0
tw925987607263305728,-0.5272321241876583,0.0,0.0,-1.0,0.0,0.0,-1.0,1.0,-1.0,0.0
tw293795578,-0.6304147789786803,0.0,0.0,-0.5,-0.5,0.0,-0.5,0.5,-0.5,0.0
tw1504157656075968515,-0.5272321241876583,0.0,0.0,-1.0,0.0,0.0,-1.0,1.0,-1.0,0.0
tw859292305911578625,-0.5272321241876583,0.0,0.0,-1.0,0.0,0.0,-1.0,1.0,-1.0,0.0
tw957136743702069248,-0.5272321241876583,0.0,0.0,-1.0,0.0,0.0,-1.0,1.0,-1.0,0.0
tw72292788,-0.5272321241876583,0.0,0.0,-1.0,0.0,0.0,-1.0,1.0,-1.0,0.0
tw4718215349,-0.5272321241876583,0.0,0.0,-1.0,0.0,0.0,-1.0,1.0,-1.0,0.0
tw2722969913,-0.5272321241876583,0.0,0.0,-1.0,0.0,0.0,-1.0,1.0,-1.0,0.0
tw718167304,-0.5272321241876583,0.0,0.0,-1.0,0.0,0.0,-1.0,1.0,-1.0,0.0
tw243500040,-0.5272321241876583,0.0,0.0,-1.0,0.0,0.0,-1.0,1.0,-1.0,0.0
tw1009030750430212097,-0.5272321241876583,0.0,0.0,-1.0,0.0,0.0,-1.0,1.0,-1.0,0.0
tw279973877,-0.5272321241876583,0.0,0.0,-1.0,0.0,0.0,-1.0,1.0,-1.0,0.0
tw2574698446,-0.5272321241876583,0.0,0.0,-1.0,0.0,0.0,-1.0,1.0,-1.0,0.0
tw1492762427485794311,-0.5272321241876583,0.0,0.0,-1.0,0.0,0.0,-1.0,1.0,-1.0,0.0
tw1581300665573429250,-0.6297075612484917,-0.5,0.0,-0.5,0.0,0.0,-0.5,0.5,-0.5,0.0
tw1163982020,-0.5272321241876583,0.0,0.0,-1.0,0.0,0.0,-1.0,1.0,-1.0,0.0
tw128487494,-0.5272321241876583,0.0,0.0,-1.0,0.0,0.0,-1.0,1.0,-1.0,0.0
tw3356968833,-0.5272321241876583,0.0,0.0,-1.0,0.0,0.0,-1.0,1.0,-1.0,0.0
tw777452457068728320,-0.5272321241876583,0.0,0.0,-1.0,0.0,0.0,-1.0,1.0,-1.0,0.0
tw1718697279190659072,-0.5272321241876583,0.0,0.0,-1.0,0.0,0.0,-1.0,1.0,-1.0,0.0
tw1080833312,-0.5272321241876583,0.0,0.0,-1.0,0.0,0.0,-1.0,1.0,-1.0,0.0
tw1608918317678329856,-0.5272321241876583,0.0,0.0,-1.0,0.0,0.0,-1.0,1.0,-1.0,0.0
tw1516104935808684040,-0.5272321241876583,0.0,0.0,-1.0,0.0,0.0,-1.0,1.0,-1.0,0.0
tw1681365572,-0.5272321241876583,0.0,0.0,-1.0,0.0,0.0,-1.0,1.0,-1.0,0.0
tw2504060943,-0.5272321241876583,0.0,0.0,-1.0,0.0,0.0,-1.0,1.0,-1.0,0.0
tw962829088561025024,-0.009322605342198599,0.5,0.0,-0.5,0.0,0.0,-1.0,0.5,-0.5,0.0
tw2399428293,-0.5272321241876583,0.0,0.0,-1.0,0.0,0.0,-1.0,1.0,-1.0,0.0
tw1644719525600829440,-0.6327015144273689,0.0,0.5,-0.5,0.0,0.0,-0.5,0.5,0.0,-0.5
tw1401095712956456961,-0.5272321241876583,0.0,0.0,-1.0,0.0,0.0,-1.0,1.0,-1.0,0.0
tw748447411618615296,-0.5272321241876583,0.0,0.0,-1.0,0.0,0.0,-1.0,1.0,-1.0,0.0
tw1367040679461998593,-0.5272321241876583,0.0,0.0,-1.0,0.0,0.0,-1.0,1.0,-1.0,0.0
tw1218976986569355264,-0.5272321241876583,0.0,0.0,-1.0,0.0,0.0,-1.0,1.0,-1.0,0.0
tw969633401643954176,-0.5272321241876583,0.0,0.0,-1.0,0.0,0.0,-1.0,1.0,-1.0,0.0
tw1427619713685803011,-0.5272321241876583,0.0,0.0,-1.0,0.0,0.0,-1.0,1.0,-1.0,0.0
tw469272201,-0.5272321241876583,0.0,0.0,-1.0,0.0,0.0,-1.0,1.0,-1.0,0.0
tw990344363719954433,-0.5272321240388236,0.0,0.0,-0.5,0.0,0.0,-0.5,0.5,-0.5,0.0
tw1667891880204423172,-0.5272321240388236,0.0,0.0,-0.5,0.0,0.0,-0.5,0.5,-0.5,0.0
tw1913473502,-0.5272321241876583,0.0,0.0,-1.0,0.0,0.0,-1.0,1.0,-1.0,0.0
tw191782823,-0.5272321241876583,0.0,0.0,-1.0,0.0,0.0,-1.0,1.0,-1.0,0.0
tw130707479,-0.5272321241876583,0.0,0.0,-1.0,0.0,0.0,-1.0,1.0,-1.0,0.0
tw1525337455,-0.5272321241876583,0.0,0.0,-1.0,0.0,0.0,-1.0,1.0,-1.0,0.0
tw3300334630,-0.5272321241876583,0.0,0.0,-1.0,0.0,0.0,-1.0,1.0,-1.0,0.0
tw1465516980077842435,-0.7710040922100416,0.0,0.5,-0.5,0.0,-0.5,-0.5,0.5,-1.0,-0.5
tw582930316,-0.5272321241876583,0.0,0.0,-1.0,0.0,0.0,-1.0,1.0,-1.0,0.0
tw1311277802675728385,-0.5272321241876583,0.0,0.0,-1.0,0.0,0.0,-1.0,1.0,-1.0,0.0
tw207695230,-0.5272321241876583,0.0,0.0,-1.0,0.0,0.0,-1.0,1.0,-1.0,0.0
tw2765419006,-0.5272321241876583,0.0,0.0,-1.0,0.0,0.0,-1.0,1.0,-1.0,0.0
tw1495180666312568840,-0.5272321241876583,0.0,0.0,-1.0,0.0,0.0,-1.0,1.0,-1.0,0.0
tw775382581705633792,-0.5272321241876583,0.0,0.0,-1.0,0.0,0.0,-1.0,1.0,-1.0,0.0
tw290126129,-0.5272321241876583,0.0,0.0,-1.0,0.0,0.0,-1.0,1.0,-1.0,0.0
tw460122735,-0.7989654219781904,0.0,0.6666666666666666,-0.3333333333333333,0.0,-0.3333333333333333,-0.3333333333333333,0.3333333333333333,-0.3333333333333333,-0.6666666666666666
tw860743440,-0.3626517212793202,-0.5,-0.5,0.0,0.0,-0.5,0.0,0.0,0.0,0.0
tw1050674099272396801,-0.5272321241876583,0.0,0.0,-1.0,0.0,0.0,-1.0,1.0,-1.0,0.0
tw1494987600242823172,-0.5272321241876583,0.0,0.0,-1.0,0.0,0.0,-1.0,1.0,-1.0,0.0
tw20916093,-0.5272321241876583,0.0,0.0,-1.0,0.0,0.0,-1.0,1.0,-1.0,0.0
tw249802616,-0.5272321241876583,0.0,0.0,-1.0,0.0,0.0,-1.0,1.0,-1.0,0.0
tw430466746,-0.5272321240388236,0.0,0.0,-0.5,0.0,0.0,-0.5,0.5,-0.5,0.0
tw1539900848700067840,-0.5272321241876583,0.0,0.0,-1.0,0.0,0.0,-1.0,1.0,-1.0,0.0
tw3086881833,-0.5272321241876583,0.0,0.0,-1.0,0.0,0.0,-1.0,1.0,-1.0,0.0
tw1785246892751745024,-0.5272321241876583,0.0,0.0,-1.0,0.0,0.0,-1.0,1.0,-1.0,0.0
tw59790154,-0.5272321241876583,0.0,0.0,-1.0,0.0,0.0,-1.0,1.0,-1.0,0.0
tw757288349283540992,-0.5272321241876583,0.0,0.0,-1.0,0.0,0.0,-1.0,1.0,-1.0,0.0
tw220205690,0.9999999997330108,0.5,-0.25,0.0,0.0,1.0,-1.0,0.0,0.25,1.0
tw1642911716777263107,-0.5272321241876583,0.0,0.0,-1.0,0.0,0.0,-1.0,1.0,-1.0,0.0
tw1882054893772402688,-0.5272321241876583,0.0,0.0,-1.0,0.0,0.0,-1.0,1.0,-1.0,0.0
tw409283184,-0.5272321241876583,0.0,0.0,-1.0,0.0,0.0,-1.0,1.0,-1.0,0.0
tw2223588831,-0.5272321241876583,0.0,0.0,-1.0,0.0,0.0,-1.0,1.0,-1.0,0.0
tw1315392902898626561,-0.5272321241876583,0.0,0.0,-1.0,0.0,0.0,-1.0,1.0,-1.0,0.0
tw1462344635443912708,-0.5272321241876583,0.0,0.0,-1.0,0.0,0.0,-1.0,1.0,-1.0,0.0
tw905749449753985025,-0.5272321241876583,0.0,0.0,-1.0,0.0,0.0,-1.0,1.0,-1.0,0.0
tw557500054,-0.5272321241876583,0.0,0.0,-1.0,0.0,0.0,-1.0,1.0,-1.0,0.0
tw249738547,0.0,0.0,0.0,0.0,0.0,0.0,0.0,0.0,0.0,0.0
tw623903051,-0.5272321241876583,0.0,0.0,-1.0,0.0,0.0,-1.0,1.0,-1.0,0.0
tw1841678967566196736,-0.7710040922100416,0.0,0.5,-0.5,0.0,-0.5,-0.5,0.5,-1.0,-0.5
tw60107254,-0.5272321241876583,0.0,0.0,-1.0,0.0,0.0,-1.0,1.0,-1.0,0.0
tw1528604012123127810,-0.5272321241876583,0.0,0.0,-1.0,0.0,0.0,-1.0,1.0,-1.0,0.0
tw1826738419378130944,-0.5272321241876583,0.0,0.0,-1.0,0.0,0.0,-1.0,1.0,-1.0,0.0
tw970057029145583616,-0.5272321241876583,0.0,0.0,-1.0,0.0,0.0,-1.0,1.0,-1.0,0.0
tw259747263,-0.5272321241876583,0.0,0.0,-1.0,0.0,0.0,-1.0,1.0,-1.0,0.0
tw1567799726552014848,-0.5272321241876583,0.0,0.0,-1.0,0.0,0.0,-1.0,1.0,-1.0,0.0
tw1080085417679032320,-0.5272321241876583,0.0,0.0,-1.0,0.0,0.0,-1.0,1.0,-1.0,0.0
tw74998076,-0.5272321241876583,0.0,0.0,-1.0,0.0,0.0,-1.0,1.0,-1.0,0.0
tw922808745780023298,-0.5272321241876583,0.0,0.0,-1.0,0.0,0.0,-1.0,1.0,-1.0,0.0
tw1143800554096857088,-0.5272321241876583,0.0,0.0,-1.0,0.0,0.0,-1.0,1.0,-1.0,0.0
tw2526149315,-0.5272321241876583,0.0,0.0,-1.0,0.0,0.0,-1.0,1.0,-1.0,0.0
tw1730260091566252032,-0.6297075612484917,-0.5,0.0,-0.5,0.0,0.0,-0.5,0.5,-0.5,0.0
tw1223556998081531904,-0.5272321241876583,0.0,0.0,-1.0,0.0,0.0,-1.0,1.0,-1.0,0.0
tw1728835865948938240,-0.5272321241876583,0.0,0.0,-1.0,0.0,0.0,-1.0,1.0,-1.0,0.0
tw1477661223739088899,-0.5272321241876583,0.0,0.0,-1.0,0.0,0.0,-1.0,1.0,-1.0,0.0
tw188872652,-0.5272321241876583,0.0,0.0,-1.0,0.0,0.0,-1.0,1.0,-1.0,0.0
tw1870279227339137025,-0.5272321241876583,0.0,0.0,-1.0,0.0,0.0,-1.0,1.0,-1.0,0.0
tw1335281561772699651,-0.5272321241876583,0.0,0.0,-1.0,0.0,0.0,-1.0,1.0,-1.0,0.0
tw1484619041142620165,-0.33329202797952395,0.0,0.5,-0.5,0.0,0.5,-0.5,0.5,-0.5,0.0
tw1737300472988303360,0.17918497073231543,0.0,0.0,0.0,0.0,0.5,-1.0,0.5,-0.5,0.0
tw1648752811809595421,-0.7710040922100416,0.0,0.5,-0.5,0.0,-0.5,-0.5,0.5,-1.0,-0.5
tw1506203614058061828,-0.5272321241876583,0.0,0.0,-1.0,0.0,0.0,-1.0,1.0,-1.0,0.0
tw1231256569,-0.5272321241876583,0.0,0.0,-1.0,0.0,0.0,-1.0,1.0,-1.0,0.0
tw1634147248169791491,-0.5272321241876583,0.0,0.0,-1.0,0.0,0.0,-1.0,1.0,-1.0,0.0
tw1564678567350439939,-0.5272321241876583,0.0,0.0,-1.0,0.0,0.0,-1.0,1.0,-1.0,0.0
tw1814617827250479104,-0.7710040922100416,0.0,0.5,-0.5,0.0,-0.5,-0.5,0.5,-1.0,-0.5
tw3091150576,0.20805067706162397,0.0,0.0,0.5,-0.5,0.5,0.5,-0.5,0.0,0.0
tw971791513867956224,-0.5272321241876583,0.0,0.0,-1.0,0.0,0.0,-1.0,1.0,-1.0,0.0
tw3088460375,-0.5272321241876583,0.0,0.0,-1.0,0.0,0.0,-1.0,1.0,-1.0,0.0
tw1728044309755187200,0.9999999996607014,1.0,0.0,0.0,0.0,1.0,0.0,0.0,0.0,1.0
tw2604501394,-0.5272321241876583,0.0,0.0,-1.0,0.0,0.0,-1.0,1.0,-1.0,0.0
tw1793348512052051969,-0.5272321241876583,0.0,0.0,-1.0,0.0,0.0,-1.0,1.0,-1.0,0.0
tw1389125086674817024,-0.5272321241876583,0.0,0.0,-1.0,0.0,0.0,-1.0,1.0,-1.0,0.0
tw181164880,-0.5272321240388236,0.0,0.0,-0.5,0.0,0.0,-0.5,0.5,-0.5,0.0
tw263148178,-0.5272321241876583,0.0,0.0,-1.0,0.0,0.0,-1.0,1.0,-1.0,0.0
tw1075257793022779392,-0.5272321241876583,0.0,0.0,-1.0,0.0,0.0,-1.0,1.0,-1.0,0.0
tw831311622694133760,-0.5272321241876583,0.0,0.0,-1.0,0.0,0.0,-1.0,1.0,-1.0,0.0
tw1757657125000564736,-0.5272321241876583,0.0,0.0,-1.0,0.0,0.0,-1.0,1.0,-1.0,0.0
tw1833677909850005507,0.47535093685101004,0.0,0.0,0.0,-0.5,1.0,-0.5,0.0,0.0,0.0
tw1818297653886640128,-0.5272321241876583,0.0,0.0,-1.0,0.0,0.0,-1.0,1.0,-1.0,0.0
tw1673333515876802560,-0.5230838669697583,0.0,0.5,0.5,0.0,0.0,0.0,0.5,-0.5,0.0
tw1269633816659968007,-0.5272321241876583,0.0,0.0,-1.0,0.0,0.0,-1.0,1.0,-1.0,0.0
tw1265967793171767296,-0.6297075612484917,-0.5,0.0,-0.5,0.0,0.0,-0.5,0.5,-0.5,0.0
tw1671444277488939014,-0.5272321241876583,0.0,0.0,-1.0,0.0,0.0,-1.0,1.0,-1.0,0.0
tw985218531825455104,-0.5272321241876583,0.0,0.0,-1.0,0.0,0.0,-1.0,1.0,-1.0,0.0
tw1355303749745582084,-0.5272321241876583,0.0,0.0,-1.0,0.0,0.0,-1.0,1.0,-1.0,0.0
tw386593684,-0.5272321241876583,0.0,0.0,-1.0,0.0,0.0,-1.0,1.0,-1.0,0.0
tw431850267,-0.5272321241876583,0.0,0.0,-1.0,0.0,0.0,-1.0,1.0,-1.0,0.0
tw1785543158996037632,-0.5272321241876583,0.0,0.0,-1.0,0.0,0.0,-1.0,1.0,-1.0,0.0
tw1321435404428546049,-0.5272321241876583,0.0,0.0,-1.0,0.0,0.0,-1.0,1.0,-1.0,0.0
tw740233597035159552,-0.5272321241876583,0.0,0.0,-1.0,0.0,0.0,-1.0,1.0,-1.0,0.0
tw412773158,-0.5272321241876583,0.0,0.0,-1.0,0.0,0.0,-1.0,1.0,-1.0,0.0
tw1267093396537184256,-0.5272321241876583,0.0,0.0,-1.0,0.0,0.0,-1.0,1.0,-1.0,0.0
tw394246860,-0.5272321241876583,0.0,0.0,-1.0,0.0,0.0,-1.0,1.0,-1.0,0.0
tw1321305202507554816,-0.5272321241876583,0.0,0.0,-1.0,0.0,0.0,-1.0,1.0,-1.0,0.0
tw1853823369776357378,-0.5272321241876583,0.0,0.0,-1.0,0.0,0.0,-1.0,1.0,-1.0,0.0
tw1524741220861325313,-0.5272321241876583,0.0,0.0,-1.0,0.0,0.0,-1.0,1.0,-1.0,0.0
tw47589132,-0.5272321241876583,0.0,0.0,-1.0,0.0,0.0,-1.0,1.0,-1.0,0.0
tw857249276,-0.5272321241876583,0.0,0.0,-1.0,0.0,0.0,-1.0,1.0,-1.0,0.0
tw1540063881162330113,-0.5272321240388236,0.0,0.0,-0.5,0.0,0.0,-0.5,0.5,-0.5,0.0
tw1087709196920020993,-0.5272321241876583,0.0,0.0,-1.0,0.0,0.0,-1.0,1.0,-1.0,0.0
tw49186811,-0.5272321241876583,0.0,0.0,-1.0,0.0,0.0,-1.0,1.0,-1.0,0.0
tw1725063914948333568,0.9999999996607014,1.0,0.0,0.0,0.0,1.0,0.0,0.0,0.0,1.0
tw1216639153,-0.5272321241876583,0.0,0.0,-1.0,0.0,0.0,-1.0,1.0,-1.0,0.0
tw1248250600791441408,-0.5272321241876583,0.0,0.0,-1.0,0.0,0.0,-1.0,1.0,-1.0,0.0
tw1419438446,0.9999999994587645,0.0,0.0,0.0,0.0,0.5,-0.5,0.0,0.5,0.5
tw30269748,-0.5314958835347591,-0.3333333333333333,-0.3333333333333333,0.3333333333333333,0.0,-0.6666666666666666,0.0,0.0,-0.3333333333333333,-0.6666666666666666
tw926357738933964801,-0.5272321241876583,0.0,0.0,-1.0,0.0,0.0,-1.0,1.0,-1.0,0.0
tw322893454,-0.5272321241876583,0.0,0.0,-1.0,0.0,0.0,-1.0,1.0,-1.0,0.0
tw552382539,-0.5272321241876583,0.0,0.0,-1.0,0.0,0.0,-1.0,1.0,-1.0,0.0
tw1297610599984181248,-0.5272321241876583,0.0,0.0,-1.0,0.0,0.0,-1.0,1.0,-1.0,0.0
tw221770295,-0.5272321241876583,0.0,0.0,-1.0,0.0,0.0,-1.0,1.0,-1.0,0.0
tw453473029,-0.04227686268409336,0.0,0.0,0.0,0.0,-0.16666666666666666,-0.3333333333333333,-0.16666666666666666,-0.16666666666666666,-0.16666666666666666
tw1231417874,0.9999999989888627,0.0,0.0,0.0,1.0,0.0,0.0,0.0,0.0,0.0
tw1540888856,-0.5272321241876583,0.0,0.0,-1.0,0.0,0.0,-1.0,1.0,-1.0,0.0
tw926773488249061377,-0.5272321241876583,0.0,0.0,-1.0,0.0,0.0,-1.0,1.0,-1.0,0.0
tw979791379781095425,-0.5272321241876583,0.0,0.0,-1.0,0.0,0.0,-1.0,1.0,-1.0,0.0
tw1823091487925522432,0.9999999996434038,0.0,0.0,0.0,0.0,1.0,-1.0,0.0,0.0,1.0
tw1325040555420749825,-0.6297075612484917,-0.5,0.0,-0.5,0.0,0.0,-0.5,0.5,-0.5,0.0
tw1005539792983998464,-0.9999999992830418,-0.5,0.0,0.0,0.0,-0.5,0.5,0.0,0.0,0.0
tw1642041947492589573,-0.7710040922100416,0.0,0.5,-0.5,0.0,-0.5,-0.5,0.5,-1.0,-0.5
tw1009734674,0.0,0.0,0.0,0.0,0.0,0.0,0.0,0.0,0.0,0.0
tw326996199,-0.5272321241876583,0.0,0.0,-1.0,0.0,0.0,-1.0,1.0,-1.0,0.0
tw2497208850,-0.5272321241876583,0.0,0.0,-1.0,0.0,0.0,-1.0,1.0,-1.0,0.0
tw776844159986470912,-0.5272321241876583,0.0,0.0,-1.0,0.0,0.0,-1.0,1.0,-1.0,0.0
tw131013931,-0.5269372413769903,-1.0,-1.0,0.0,0.0,-1.0,0.0,0.0,0.0,-1.0
tw738445027844730880,-0.5272321241876583,0.0,0.0,-1.0,0.0,0.0,-1.0,1.0,-1.0,0.0
tw3493718547,-0.5272321241876583,0.0,0.0,-1.0,0.0,0.0,-1.0,1.0,-1.0,0.0
tw1851216291593342976,-0.5272321241876583,0.0,0.0,-1.0,0.0,0.0,-1.0,1.0,-1.0,0.0
tw1803766118571450368,0.0,0.0,0.0,0.0,0.0,0.0,0.0,0.0,0.0,0.0
tw2750127259,0.9999999991634495,0.0,0.0,0.3333333333333333,0.0,0.0,-0.3333333333333333,0.0,0.3333333333333333,0.3333333333333333
tw1534432783220756480,-0.5272321241876583,0.0,0.0,-1.0,0.0,0.0,-1.0,1.0,-1.0,0.0
tw993493172130123776,-0.5272321241876583,0.0,0.0,-1.0,0.0,0.0,-1.0,1.0,-1.0,0.0
tw1659475172485734402,-0.5272321241876583,0.0,0.0,-1.0,0.0,0.0,-1.0,1.0,-1.0,0.0
tw1163747614241615874,0.999999999647555,0.0,0.0,0.0,0.0,0.0,0.0,-1.0,1.0,1.0
tw717983284324614144,-0.5272321241876583,0.0,0.0,-1.0,0.0,0.0,-1.0,1.0,-1.0,0.0
tw1810963792005615616,-0.5272321241876583,0.0,0.0,-1.0,0.0,0.0,-1.0,1.0,-1.0,0.0
tw1524889762531770368,-0.5272321241876583,0.0,0.0,-1.0,0.0,0.0,-1.0,1.0,-1.0,0.0
tw1236210791063400448,-0.5272321241876583,0.0,0.0,-1.0,0.0,0.0,-1.0,1.0,-1.0,0.0
tw748645734195535873,-0.5272321241876583,0.0,0.0,-1.0,0.0,0.0,-1.0,1.0,-1.0,0.0
tw76992264,0.0,0.0,0.0,0.0,0.0,0.0,0.0,0.0,0.0,0.0
tw1598653134,-0.5272321241876583,0.0,0.0,-1.0,0.0,0.0,-1.0,1.0,-1.0,0.0
tw2173669814,-0.5272321241876583,0.0,0.0,-1.0,0.0,0.0,-1.0,1.0,-1.0,0.0
tw1176466675,-0.5272321241876583,0.0,0.0,-1.0,0.0,0.0,-1.0,1.0,-1.0,0.0
tw1557478416080830465,-0.5272321241876583,0.0,0.0,-1.0,0.0,0.0,-1.0,1.0,-1.0,0.0
tw1184507053513101315,-0.5272321241876583,0.0,0.0,-1.0,0.0,0.0,-1.0,1.0,-1.0,0.0
tw18274443,-0.04729819096306109,-0.5,-0.5,0.5,0.0,-0.5,0.0,0.0,0.0,0.0
tw699729113288941569,-0.5272321241876583,0.0,0.0,-1.0,0.0,0.0,-1.0,1.0,-1.0,0.0
tw1484244908013727750,-0.531074330761964,-0.3333333333333333,0.0,-0.3333333333333333,0.0,0.0,-0.3333333333333333,0.0,-0.3333333333333333,0.0
tw3428183548,-0.5272321241876583,0.0,0.0,-1.0,0.0,0.0,-1.0,1.0,-1.0,0.0
tw1825646590180163584,-0.23485523054520868,-0.5,-1.0,0.0,0.0,-0.5,0.0,0.0,0.0,-0.5
tw182330584,-0.5272321241876583,0.0,0.0,-1.0,0.0,0.0,-1.0,1.0,-1.0,0.0
tw1170390739823616000,-0.5272321241876583,0.0,0.0,-1.0,0.0,0.0,-1.0,1.0,-1.0,0.0
tw1630130728959725568,-0.5272321241876583,0.0,0.0,-1.0,0.0,0.0,-1.0,1.0,-1.0,0.0
tw1591350303139528704,-0.5272321241876583,0.0,0.0,-1.0,0.0,0.0,-1.0,1.0,-1.0,0.0
tw4370551092,-0.5269372413769903,-1.0,-1.0,0.0,0.0,-1.0,0.0,0.0,0.0,-1.0
tw1671664858255720449,-0.5272321241876583,0.0,0.0,-1.0,0.0,0.0,-1.0,1.0,-1.0,0.0
tw347204021,-0.5272321241876583,0.0,0.0,-1.0,0.0,0.0,-1.0,1.0,-1.0,0.0
tw1270014884651175937,-0.5272321241876583,0.0,0.0,-1.0,0.0,0.0,-1.0,1.0,-1.0,0.0
tw250657724,-0.5272321241876583,0.0,0.0,-1.0,0.0,0.0,-1.0,1.0,-1.0,0.0
tw3369542385,-0.5272321241876583,0.0,0.0,-1.0,0.0,0.0,-1.0,1.0,-1.0,0.0
tw157711126,-0.5272321241876583,0.0,0.0,-1.0,0.0,0.0,-1.0,1.0,-1.0,0.0
tw1737744257585238017,-0.5272321241876583,0.0,0.0,-1.0,0.0,0.0,-1.0,1.0,-1.0,0.0
tw198274839,-0.5272321241876583,0.0,0.0,-1.0,0.0,0.0,-1.0,1.0,-1.0,0.0
tw453048744,-0.5272321241876583,0.0,0.0,-1.0,0.0,0.0,-1.0,1.0,-1.0,0.0
tw1481508452409171968,-0.5272321241876583,0.0,0.0,-1.0,0.0,0.0,-1.0,1.0,-1.0,0.0
tw1545337986887434242,-0.5272321241876583,0.0,0.0,-1.0,0.0,0.0,-1.0,1.0,-1.0,0.0
tw353821053,-0.5272321241876583,0.0,0.0,-1.0,0.0,0.0,-1.0,1.0,-1.0,0.0
tw967726897,-0.5272321241876583,0.0,0.0,-1.0,0.0,0.0,-1.0,1.0,-1.0,0.0
tw1045665784385744897,-0.5272321241876583,0.0,0.0,-1.0,0.0,0.0,-1.0,1.0,-1.0,0.0
tw1781294787234000896,-0.5272321241876583,0.0,0.0,-1.0,0.0,0.0,-1.0,1.0,-1.0,0.0
tw62264201,-0.5272321241876583,0.0,0.0,-1.0,0.0,0.0,-1.0,1.0,-1.0,0.0
tw3123135435,-0.3358116503801477,-0.3333333333333333,0.0,-0.3333333333333333,0.0,0.0,-0.3333333333333333,0.3333333333333333,-0.3333333333333333,0.3333333333333333
tw2359511056,-0.5272321241876583,0.0,0.0,-1.0,0.0,0.0,-1.0,1.0,-1.0,0.0
tw321593065,-0.5272321241876583,0.0,0.0,-1.0,0.0,0.0,-1.0,1.0,-1.0,0.0
tw1359200179535118339,-0.2555214452068745,0.0,-0.5,-0.5,0.0,0.5,-0.5,0.5,-1.0,-0.5
tw1282117906789273601,-0.5272321241876583,0.0,0.0,-1.0,0.0,0.0,-1.0,1.0,-1.0,0.0
tw1460707651,-0.5272321241876583,0.0,0.0,-1.0,0.0,0.0,-1.0,1.0,-1.0,0.0
tw631364433,-0.5272321241876583,0.0,0.0,-1.0,0.0,0.0,-1.0,1.0,-1.0,0.0
tw825618092659060737,-0.5269372413769903,-1.0,-1.0,0.0,0.0,-1.0,0.0,0.0,0.0,-1.0
tw756202862,-0.5272321241876583,0.0,0.0,-1.0,0.0,0.0,-1.0,1.0,-1.0,0.0
tw1662704654537437187,-0.5272321241876583,0.0,0.0,-1.0,0.0,0.0,-1.0,1.0,-1.0,0.0
tw763085923739369472,-0.5272321241876583,0.0,0.0,-1.0,0.0,0.0,-1.0,1.0,-1.0,0.0
tw1491198972148559874,-0.5272321241876583,0.0,0.0,-1.0,0.0,0.0,-1.0,1.0,-1.0,0.0
tw4825891719,-0.5272321241876583,0.0,0.0,-1.0,0.0,0.0,-1.0,1.0,-1.0,0.0
tw1366290954009870336,-0.5272321240388236,0.0,0.0,-0.5,0.0,0.0,-0.5,0.5,-0.5,0.0
tw1424867436642308099,-0.5272321241876583,0.0,0.0,-1.0,0.0,0.0,-1.0,1.0,-1.0,0.0
tw3311413602,-0.5272321241876583,0.0,0.0,-1.0,0.0,0.0,-1.0,1.0,-1.0,0.0
tw103784188,-0.5272321241876583,0.0,0.0,-1.0,0.0,0.0,-1.0,1.0,-1.0,0.0
tw1809513046437765120,-0.5272321241876583,0.0,0.0,-1.0,0.0,0.0,-1.0,1.0,-1.0,0.0
tw1416327667486535680,-0.5272321241876583,0.0,0.0,-1.0,0.0,0.0,-1.0,1.0,-1.0,0.0
tw158154624,-0.5272321241876583,0.0,0.0,-1.0,0.0,0.0,-1.0,1.0,-1.0,0.0
tw3881465127,-0.7317430243456133,-1.0,-0.5,0.0,0.0,-1.0,0.0,0.0,0.0,-1.0
tw1831083398489636865,-0.5269372413769903,-1.0,-1.0,0.0,0.0,-1.0,0.0,0.0,0.0,-1.0
tw1572651610840473606,0.9999999988409453,0.0,0.0,1.0,0.0,0.0,0.0,0.0,0.0,0.0
tw172470598,-0.5269372413769903,-1.0,-1.0,0.0,0.0,-1.0,0.0,0.0,0.0,-1.0
tw1784094238218567680,-0.9999999994643453,0.0,0.3333333333333333,-0.6666666666666666,0.0,-0.3333333333333333,0.0,0.0,0.0,-0.6666666666666666
tw1610039300661411844,0.9999999988409453,0.0,0.0,1.0,0.0,0.0,0.0,0.0,0.0,0.0
tw52036991,0.282424526513697,0.0,0.0,1.0,0.0,0.0,-1.0,1.0,0.0,0.0
tw231978143,-0.019419560420148762,0.0,0.0,0.0,-1.0,0.0,0.0,-1.0,0.0,0.0
tw1016333727503388681,-0.27323903120649434,-0.25,0.0,0.5,0.0,-0.5,0.0,0.25,-0.25,0.25
tw1587778448487055360,0.9999999995930147,0.5,0.0,0.0,0.0,1.0,0.0,0.0,0.0,1.0
tw2739693531,-0.019419560420148762,0.0,0.0,0.0,-1.0,0.0,0.0,-1.0,0.0,0.0
tw18461401,0.9999999994617381,0.0,0.0,1.0,0.0,0.0,0.0,0.0,0.0,1.0
tw572973025,0.9999999988409453,0.0,0.0,1.0,0.0,0.0,0.0,0.0,0.0,0.0
tw1430645887299162112,-0.26344037499625966,0.0,-0.25,0.0,-0.25,0.25,0.0,-0.25,-0.25,-0.75
tw17782782,0.9999999996434038,0.0,0.0,0.0,0.0,1.0,-1.0,0.0,0.0,1.0
tw726499663554199552,0.9999999976115603,0.0,0.0,0.0,0.0,0.0,-0.5,0.0,0.0,0.0
tw483653905,-0.5230838669697583,0.0,0.5,0.5,0.0,0.0,0.0,0.5,-0.5,0.0
tw720472023827423232,0.9999999996434038,0.0,0.0,0.0,0.0,1.0,-1.0,0.0,0.0,1.0
tw734923666450829312,0.9999999996434038,0.0,0.0,0.0,0.0,1.0,-1.0,0.0,0.0,1.0
tw21878458,0.9999999996434038,0.0,0.0,0.0,0.0,1.0,-1.0,0.0,0.0,1.0
tw30514714,0.9999999996434038,0.0,0.0,0.0,0.0,1.0,-1.0,0.0,0.0,1.0
tw1035460693,-0.49679716121289585,0.0,0.0,-1.0,0.0,-1.0,0.0,-1.0,0.0,-1.0
tw1887701388227907584,0.0,0.0,0.0,0.0,0.0,0.0,0.0,0.0,0.0,0.0
tw3023600097,-0.7664745716443089,0.0,0.6666666666666666,0.3333333333333333,0.0,-0.3333333333333333,0.0,0.3333333333333333,-0.6666666666666666,-0.3333333333333333
tw1792881523550814208,-0.9999999995403238,0.0,0.6666666666666666,0.0,0.0,-0.3333333333333333,0.0,0.3333333333333333,-0.6666666666666666,-0.3333333333333333
tw1600962197047353353,0.0,0.0,0.0,0.0,0.0,0.0,0.0,0.0,0.0,0.0
tw1090997597974732800,-0.8454043466160993,0.0,0.6666666666666666,0.16666666666666666,0.0,-0.16666666666666666,0.0,0.3333333333333333,-0.3333333333333333,-0.3333333333333333
tw2306619133,-0.5230838669697583,0.0,0.5,0.5,0.0,0.0,0.0,0.5,-0.5,0.0
tw1496209819065327624,-0.3023499302259288,0.0,0.2,-0.2,0.0,0.0,0.0,-0.2,0.0,0.0
tw1106348821,0.9999999988409453,0.0,0.0,1.0,0.0,0.0,0.0,0.0,0.0,0.0
tw2928592226,-0.5168101018562211,-0.5,-0.5,0.0,0.0,0.0,0.0,0.0,-0.5,-0.5
tw1872463708460310528,0.9999999988409453,0.0,0.0,1.0,0.0,0.0,0.0,0.0,0.0,0.0
tw1063923588,-0.6276138055158617,0.0,0.5,0.5,0.0,-0.5,0.0,0.0,-0.5,-0.5
tw1693545439876849664,0.3261552850774421,0.0,0.0,0.0,-0.5,0.0,0.0,-0.5,0.0,0.5
tw1533879758391496705,0.6695650422442139,0.0,0.5,0.0,0.0,1.0,-1.0,0.0,0.0,0.5
tw4903652965,-0.5817814737727403,0.0,0.5,0.5,0.0,-0.25,0.0,0.25,-0.5,-0.25
tw620136960,0.9999999993638136,0.23809523809523808,0.0,0.047619047619047616,0.0,0.6190476190476191,-0.09523809523809523,0.0,0.0,0.6190476190476191
tw814819352662790145,0.913768307352243,0.2413793103448276,0.0,0.13793103448275862,0.0,0.5172413793103449,-0.10344827586206896,0.06896551724137931,0.034482758620689655,0.4827586206896552
tw1370243212456030210,-0.7664745715405786,0.0,0.5,0.25,0.0,-0.25,0.0,0.25,-0.5,-0.25
tw1852320422047440896,0.9999999988409453,0.0,0.0,1.0,0.0,0.0,0.0,0.0,0.0,0.0
tw1652463662026686467,0.999999999647555,0.0,0.0,0.0,0.0,0.0,0.0,-1.0,1.0,1.0
tw27385174,0.9999999994826968,0.0,0.0,0.0,0.0,0.3333333333333333,0.0,-0.3333333333333333,0.3333333333333333,1.0
tw1136425523762958337,-0.6276138055158617,0.0,0.5,0.5,0.0,-0.5,0.0,0.0,-0.5,-0.5
tw1844020938108456960,-0.9999999994658607,0.0,0.5,0.0,-0.5,0.0,0.0,0.5,-0.5,0.0
tw143385009,0.9999999988409453,0.0,0.0,1.0,0.0,0.0,0.0,0.0,0.0,0.0
tw976170247924350977,0.9999999978976265,0.0,0.0,0.0,0.0,0.0,0.0,-0.5,0.0,0.0
tw1823975106529366016,-0.8454043466160993,0.0,0.6666666666666666,0.16666666666666666,0.0,-0.16666666666666666,0.0,0.3333333333333333,-0.3333333333333333,-0.3333333333333333
tw2898755521,-0.7301772736700309,0.0,0.25,0.25,0.0,0.0,0.0,0.25,-0.75,-0.25
tw1216832810,-0.7665079737143922,0.0,0.25,0.25,0.0,0.0,0.0,0.25,-0.75,-0.5
tw1519408644269424641,0.34126027954436844,0.0,0.0,0.25,0.0,0.0,0.0,-0.25,-0.25,0.0
tw39773415,0.9999999993146533,0.0,0.0,0.0,0.0,0.5,0.0,-0.5,0.0,0.5
tw1715358680630050816,-0.3475827835440609,0.0,-1.0,0.0,0.0,0.0,0.0,0.0,-1.0,-1.0
tw1751509917830434816,-0.016071420896152724,0.0,0.0,0.5,0.0,0.0,0.0,0.0,-0.5,0.0
tw1483341270164643844,0.9999999988409453,0.0,0.0,1.0,0.0,0.0,0.0,0.0,0.0,0.0
tw2743860855,0.9999999991761996,0.0,0.0,0.0,0.0,0.3333333333333333,-0.6666666666666666,0.0,0.0,0.3333333333333333
tw1854856365610532864,-0.6276138055158617,0.0,0.5,0.5,0.0,-0.5,0.0,0.0,-0.5,-0.5
tw28409510,-0.9999999993001811,0.0,0.0,0.0,0.0,-0.5,0.0,0.0,-0.5,-0.5
tw23326102,0.9999999997357729,1.0,0.0,0.0,0.0,1.0,-1.0,0.0,0.0,1.0
tw133346891,0.0,0.0,0.0,0.0,0.0,0.0,0.0,0.0,0.0,0.0
tw884527637569323009,0.7672513141325411,0.5,0.0,-0.25,0.0,0.75,-0.5,0.0,0.0,0.0
tw1452328810104475658,-0.7664745716443089,0.0,0.6666666666666666,0.3333333333333333,0.0,-0.3333333333333333,0.0,0.3333333333333333,-0.6666666666666666,-0.3333333333333333
tw1531908659172757504,-0.7947321054713098,0.0,0.75,0.25,0.0,-0.25,0.0,0.25,-0.25,-0.5
tw151649983,0.9999999997357729,1.0,0.0,0.0,0.0,1.0,-1.0,0.0,0.0,1.0
tw1640526158436417539,-0.8299028604417877,0.0,0.75,0.25,0.0,-0.25,0.0,0.5,-0.75,-0.25
tw1469954297287049217,0.9999999982614178,0.0,0.0,0.6666666666666666,0.0,0.0,0.0,0.0,0.0,0.0
tw142441083,-0.4483908642815956,0.0,-0.25,0.25,0.0,0.0,0.0,0.0,-0.75,-0.5
tw1469983448291028997,-0.9999999993567457,-0.1111111111111111,0.2222222222222222,0.0,0.0,0.0,0.0,0.3333333333333333,-0.6666666666666666,-0.3333333333333333
tw1574425803869523968,0.9999999997357729,1.0,0.0,0.0,0.0,1.0,-1.0,0.0,0.0,1.0
tw797906720538456064,-0.6886624444080123,0.0,0.0,0.25,0.0,0.0,0.0,0.5,-0.5,-0.25
tw2866705351,0.9999999997859571,0.0,0.0,1.0,0.0,1.0,0.0,-1.0,1.0,1.0
tw1789105928807104512,0.9999999988409453,0.0,0.0,1.0,0.0,0.0,0.0,0.0,0.0,0.0
tw546941531,0.9999999992606379,0.0,0.0,0.5,0.0,0.0,0.0,-0.5,0.5,0.0
tw1519010217186447365,0.9999999988409453,0.0,0.0,1.0,0.0,0.0,0.0,0.0,0.0,0.0
tw3853556361,0.6732092180128458,0.0,-0.3333333333333333,0.6666666666666666,0.0,0.3333333333333333,0.0,-0.3333333333333333,-0.3333333333333333,0.0
tw409379480,0.9999999976115603,0.0,0.0,0.0,0.0,0.0,-0.5,0.0,0.0,0.0
tw1837691873919750146,-0.0002803113630347543,0.0,-1.0,0.0,0.0,1.0,0.0,0.0,-1.0,-1.0
tw219273566,-0.04880376632562003,0.0,0.0,1.0,0.0,0.0,0.0,1.0,0.0,0.0
tw4067701419,0.7570848837693448,0.14285714285714285,0.0,0.0,0.0,0.42857142857142855,0.0,0.14285714285714285,0.0,0.42857142857142855
tw1852247070771679232,-0.5818350397261378,0.0,0.2,0.4,0.0,0.0,0.0,0.2,-0.6,-0.4
tw1373301555659689988,0.9999999988409453,0.0,0.0,1.0,0.0,0.0,0.0,0.0,0.0,0.0
tw1776846354435788800,0.9999999988409453,0.0,0.0,1.0,0.0,0.0,0.0,0.0,0.0,0.0
tw110441236,-0.9999999969398088,-0.3333333333333333,0.0,0.0,0.0,0.0,0.0,0.0,0.0,0.0
tw477673884,0.6324013291668797,0.0,-0.5,-0.5,0.0,0.5,0.0,-0.5,0.0,0.5
tw1202515657671266304,-0.9999999994112047,0.0,0.3333333333333333,0.0,0.0,0.0,0.0,0.6666666666666666,-0.6666666666666666,-0.16666666666666666
tw1352242082690326528,0.9999999988409453,0.0,0.0,1.0,0.0,0.0,0.0,0.0,0.0,0.0
tw1846593031321063425,0.9999999988409453,0.0,0.0,1.0,0.0,0.0,0.0,0.0,0.0,0.0
tw435410131,-0.04880376629871724,0.0,0.0,0.5,0.0,0.0,0.0,0.5,0.0,0.0
tw284015951,0.9999999992356202,0.0,0.0,1.0,0.0,0.0,0.0,0.0,0.5,0.0
tw1376743121078296580,-0.9999999994694846,0.0,1.0,0.0,0.0,-1.0,0.0,0.0,0.0,0.0
tw1796414813574225920,-0.999999999569044,0.0,0.75,0.0,0.0,-0.25,0.0,0.5,-0.75,-0.25
tw153490874,-0.8118805285309211,0.0,0.42857142857142855,0.14285714285714285,0.0,0.0,0.0,0.2857142857142857,-0.42857142857142855,-0.14285714285714285
tw1935486890,-0.9999999988945589,0.0,0.0,0.0,0.0,-0.5,0.5,0.0,0.0,0.0
tw2213388857,0.0,0.0,0.0,0.0,0.0,0.0,0.0,0.0,0.0,0.0
tw1735854420930568192,0.9999999988409453,0.0,0.0,1.0,0.0,0.0,0.0,0.0,0.0,0.0
tw1044248456,-0.5230838669697583,0.0,0.5,0.5,0.0,0.0,0.0,0.5,-0.5,0.0
tw1754776481119485952,0.9999999988409453,0.0,0.0,1.0,0.0,0.0,0.0,0.0,0.0,0.0
tw121088458,-0.9999999988776113,0.0,0.0,0.0,0.0,0.0,0.0,0.0,-1.0,0.0
tw581941717,-0.7292621173297086,0.0,0.6666666666666666,0.3333333333333333,0.0,0.0,0.0,0.6666666666666666,-0.6666666666666666,0.0
tw1787624018528624640,0.0,0.0,0.0,0.0,0.0,0.0,0.0,0.0,0.0,0.0
tw1471807680390041604,0.9999999994546045,0.0,0.0,0.5,0.0,0.5,-0.5,0.0,0.0,0.5
tw37630991,0.9999999989888627,0.0,0.0,0.0,1.0,0.0,0.0,0.0,0.0,0.0
tw1216443330453819392,0.9999999988409453,0.0,0.0,1.0,0.0,0.0,0.0,0.0,0.0,0.0
tw986246774494056449,0.9999999996434038,0.0,0.0,0.0,0.0,1.0,-1.0,0.0,0.0,1.0
tw2348691160,0.9999999989888627,0.0,0.0,0.0,1.0,0.0,0.0,0.0,0.0,0.0
tw868620044,0.9999999997859571,0.0,0.0,1.0,0.0,1.0,0.0,-1.0,1.0,1.0
tw249851509,0.9999999988409453,0.0,0.0,1.0,0.0,0.0,0.0,0.0,0.0,0.0
tw1479520286622031873,0.008801927323533265,0.0,0.3333333333333333,0.0,0.0,0.3333333333333333,-0.3333333333333333,0.3333333333333333,-0.3333333333333333,0.3333333333333333
tw36629127,-0.44411820170507055,0.25,0.5,0.25,0.0,-0.25,0.0,0.0,0.0,-0.5
tw1791567661777780736,-0.43004244364044747,0.0,0.3333333333333333,0.0,0.0,0.0,-0.3333333333333333,0.6666666666666666,-0.6666666666666666,0.3333333333333333
tw1055145840501764098,0.9999999988409453,0.0,0.0,1.0,0.0,0.0,0.0,0.0,0.0,0.0
tw1329340262041128961,-0.5230838669697583,0.0,0.5,0.5,0.0,0.0,0.0,0.5,-0.5,0.0
tw771172147,0.9999999996434038,0.0,0.0,0.0,0.0,1.0,-1.0,0.0,0.0,1.0
tw588155534,0.5898709520390764,0.0,0.25,0.75,0.0,0.0,0.0,-0.25,0.0,0.0
tw1453308994819436558,0.11352623086919529,0.0,0.2,0.2,0.2,0.2,-0.2,0.4,-0.2,0.2
tw753876647288373249,-0.6276138055158617,0.0,0.5,0.5,0.0,-0.5,0.0,0.0,-0.5,-0.5
tw602192289,-0.9999999994149577,0.0,0.16666666666666666,0.0,0.0,0.0,0.0,0.3333333333333333,-0.8333333333333334,-0.5
tw1421932265085575168,0.9999999988409453,0.0,0.0,1.0,0.0,0.0,0.0,0.0,0.0,0.0
tw2838614335,0.9999999988409453,0.0,0.0,1.0,0.0,0.0,0.0,0.0,0.0,0.0
tw1695139567748120576,0.9999999994750695,0.5,0.0,0.5,0.0,0.5,0.0,0.0,0.0,0.5
tw1485062423589568514,0.9999999988409453,0.0,0.0,1.0,0.0,0.0,0.0,0.0,0.0,0.0
tw1825024462817005568,0.9999999988409453,0.0,0.0,1.0,0.0,0.0,0.0,0.0,0.0,0.0
tw1735514257108975616,-0.5817814737727403,0.0,0.5,0.5,0.0,-0.25,0.0,0.25,-0.5,-0.25
tw2863358028,-0.9999999994697443,0.0,0.75,0.0,0.0,-0.25,0.0,0.25,-0.25,-0.5
tw1573887788252012545,0.9999999988409453,0.0,0.0,1.0,0.0,0.0,0.0,0.0,0.0,0.0
tw3132362088,0.0,0.0,0.0,0.0,0.0,0.0,0.0,0.0,0.0,0.0
tw1604960751508246578,0.9999999988409453,0.0,0.0,1.0,0.0,0.0,0.0,0.0,0.0,0.0
tw952740986064703488,-0.9999999969851059,0.0,0.0,0.0,0.0,0.0,0.0,0.0,0.0,-0.3333333333333333
tw908196957264404481,-0.9999999994556058,0.0,0.6666666666666666,0.0,0.0,0.0,0.0,0.6666666666666666,-0.6666666666666666,0.0
tw16799023,-0.9999999989888627,0.0,0.0,0.0,-1.0,0.0,0.0,0.0,0.0,0.0
tw1068765430926454784,-0.6039450868443136,0.0,0.2,0.2,0.2,-0.2,0.0,0.2,-0.6,-0.4
tw1445075000491397122,-0.7292621173297086,0.0,0.6666666666666666,0.3333333333333333,0.0,0.0,0.0,0.6666666666666666,-0.6666666666666666,0.0
tw774608694008958977,-0.8454043466918413,0.0,0.8,0.2,0.0,-0.2,0.0,0.4,-0.4,-0.4
tw1480943425314865162,0.9999999994587645,0.0,0.0,0.0,0.0,0.5,-0.5,0.0,0.5,0.5
tw1804270858879574016,0.9999999988409453,0.0,0.0,1.0,0.0,0.0,0.0,0.0,0.0,0.0
tw232804709,-0.7651173314017676,0.0,0.25,0.25,0.0,0.0,0.0,0.5,-0.75,-0.25
tw2881764542,0.9999999989272688,0.0,-0.5,0.0,0.0,0.0,0.0,-0.5,0.0,0.0
tw1761496298165854208,0.9999999988409453,0.0,0.0,1.0,0.0,0.0,0.0,0.0,0.0,0.0
tw3280279746,0.9999999988409453,0.0,0.0,1.0,0.0,0.0,0.0,0.0,0.0,0.0
tw1338672708846960645,-0.9999999994694846,0.0,1.0,0.0,0.0,-1.0,0.0,0.0,0.0,0.0
tw1412708663370960896,0.35466481716781667,0.0,0.0,0.16666666666666666,0.0,0.5,-0.16666666666666666,0.0,-0.5,0.16666666666666666
tw30582213,-0.9999999989950353,0.0,0.0,0.0,0.0,0.0,0.0,0.0,0.0,-1.0
tw2472442969,0.9999999988409453,0.0,0.0,1.0,0.0,0.0,0.0,0.0,0.0,0.0
tw111493899,0.9999999996434038,0.0,0.0,0.0,0.0,1.0,-1.0,0.0,0.0,1.0
tw1090834412399321088,-0.9999999994694846,0.0,1.0,0.0,0.0,-1.0,0.0,0.0,0.0,0.0
tw1510523360606056449,0.9999999989488133,0.0,0.0,0.0,0.0,0.0,0.0,-1.0,0.0,0.0
tw1850696165601185794,-0.6276138055158617,0.0,0.5,0.5,0.0,-0.5,0.0,0.0,-0.5,-0.5
tw312936582,0.9999999988409453,0.0,0.0,1.0,0.0,0.0,0.0,0.0,0.0,0.0
tw2753540296,-0.04880376629871724,0.0,0.0,0.5,0.0,0.0,0.0,0.5,0.0,0.0
tw147936201,-0.7664745716443089,0.0,0.6666666666666666,0.3333333333333333,0.0,-0.3333333333333333,0.0,0.3333333333333333,-0.6666666666666666,-0.3333333333333333
tw3259159568,0.0,0.0,0.0,0.0,0.0,0.0,0.0,0.0,0.0,0.0
tw2189398303,-0.7920458620528537,0.0,0.2,0.2,0.0,0.0,0.0,0.6,-0.6,-0.2
tw1825059327733800960,0.9999999988409453,0.0,0.0,1.0,0.0,0.0,0.0,0.0,0.0,0.0
tw181759529,0.9999999988409453,0.0,0.0,1.0,0.0,0.0,0.0,0.0,0.0,0.0
tw1727890153610280960,0.9999999996607014,1.0,0.0,0.0,0.0,1.0,0.0,0.0,0.0,1.0
tw1235324925847777282,-0.9999999995403238,0.0,0.6666666666666666,0.0,0.0,-0.3333333333333333,0.0,0.3333333333333333,-0.6666666666666666,-0.3333333333333333
tw3041090446,0.0,0.0,0.0,0.0,0.0,0.0,0.0,0.0,0.0,0.0
tw1029630200328286209,-0.5230838669697583,0.0,0.5,0.5,0.0,0.0,0.0,0.5,-0.5,0.0
tw1749623605091291136,-0.5817814737727403,0.0,0.5,0.5,0.0,-0.25,0.0,0.25,-0.5,-0.25
tw1592501493638303744,-0.3601981311277064,0.0,0.5,0.5,0.0,0.0,0.0,0.25,-0.25,0.0
tw1519660566813581313,-0.20442960511610203,0.0,0.6666666666666666,0.3333333333333333,0.0,0.3333333333333333,0.0,0.3333333333333333,0.0,0.0
tw33960482,0.0,0.0,0.0,0.0,0.0,0.0,0.0,0.0,0.0,0.0
tw1413492541786230790,-0.5230838669697583,0.0,0.5,0.5,0.0,0.0,0.0,0.5,-0.5,0.0
tw20322062,0.35174582271275107,0.0,0.0,0.3333333333333333,0.0,0.0,0.0,0.0,-0.3333333333333333,0.3333333333333333
tw578237372,-0.5230838668251854,0.0,0.3333333333333333,0.3333333333333333,0.0,0.0,0.0,0.3333333333333333,-0.3333333333333333,0.0
tw549723287,0.9999999988409453,0.0,0.0,1.0,0.0,0.0,0.0,0.0,0.0,0.0
tw1314523876148293634,0.9999999988409453,0.0,0.0,1.0,0.0,0.0,0.0,0.0,0.0,0.0
tw17716742,0.0,0.0,0.0,0.0,0.0,0.0,0.0,0.0,0.0,0.0
tw1373080766842867712,0.9999999988409453,0.0,0.0,1.0,0.0,0.0,0.0,0.0,0.0,0.0
tw1572631218344034304,-0.9999999992741411,0.0,0.5,0.0,0.0,0.0,0.0,0.5,-0.5,0.0
tw1675392049795993600,-0.7664745716443089,0.0,0.6666666666666666,0.3333333333333333,0.0,-0.3333333333333333,0.0,0.3333333333333333,-0.6666666666666666,-0.3333333333333333
tw1385014878503645184,-0.6276138053804177,0.0,0.3333333333333333,0.3333333333333333,0.0,-0.3333333333333333,0.0,0.0,-0.3333333333333333,-0.3333333333333333
tw1030225898010828801,-0.5230838669697583,0.0,0.5,0.5,0.0,0.0,0.0,0.5,-0.5,0.0
tw1214273916069273600,0.0,0.0,0.0,0.0,0.0,0.0,0.0,0.0,0.0,0.0
tw1468744745904001026,0.9999999989888627,0.0,0.0,0.0,1.0,0.0,0.0,0.0,0.0,0.0
tw1655542168948285440,-0.6276138055158617,0.0,0.5,0.5,0.0,-0.5,0.0,0.0,-0.5,-0.5
tw1694859187585425409,0.9999999996434038,0.0,0.0,0.0,0.0,1.0,-1.0,0.0,0.0,1.0
tw1039122739200761856,0.003781165347351286,0.0,-0.5,0.0,0.0,0.25,0.0,0.0,-0.5,-0.25
tw1320842166680342529,-0.6276138055158617,0.0,0.5,0.5,0.0,-0.5,0.0,0.0,-0.5,-0.5
tw1293785734583853056,-0.6276138055158617,0.0,0.5,0.5,0.0,-0.5,0.0,0.0,-0.5,-0.5
tw413912416,0.5902877537286618,0.0,0.0,0.36363636363636365,0.0,0.18181818181818182,0.0,0.18181818181818182,0.0,0.18181818181818182
tw1515673814444941315,-0.35756154069241447,0.0,0.3333333333333333,0.6666666666666666,0.0,0.0,0.0,0.3333333333333333,-0.6666666666666666,0.0
tw790534518373355524,-0.5230838669697583,0.0,0.5,0.5,0.0,0.0,0.0,0.5,-0.5,0.0
tw1713261995506450432,-0.6276138055158617,0.0,0.5,0.5,0.0,-0.5,0.0,0.0,-0.5,-0.5
tw1595968469601865730,-0.5230838669697583,0.0,0.5,0.5,0.0,0.0,0.0,0.5,-0.5,0.0
tw1601250214286970882,0.9999999988409453,0.0,0.0,1.0,0.0,0.0,0.0,0.0,0.0,0.0
tw4196733095,-0.5635280169713378,0.0,0.5,0.5,0.0,-0.16666666666666666,0.16666666666666666,0.16666666666666666,-0.3333333333333333,-0.3333333333333333
tw4228665913,0.9999999988409453,0.0,0.0,1.0,0.0,0.0,0.0,0.0,0.0,0.0
tw1819156448980750338,-0.5230838669697583,0.0,0.5,0.5,0.0,0.0,0.0,0.5,-0.5,0.0
tw2420004272,-0.46238421769730215,0.0,0.6,0.2,0.2,0.0,-0.2,0.4,-0.6,0.0
tw1577132359522172931,0.9999999988409453,0.0,0.0,1.0,0.0,0.0,0.0,0.0,0.0,0.0
tw1495899941029523460,0.03275803905295622,0.0,0.0,0.0,0.0,0.0,0.0,-1.0,-1.0,0.0
tw436938596,0.9999999988409453,0.0,0.0,1.0,0.0,0.0,0.0,0.0,0.0,0.0
tw1644861862960590848,-0.4286783339032402,-0.25,0.5,-0.25,-0.25,0.25,0.0,0.0,0.25,0.0
tw995500553655541762,0.9999999989888627,0.0,0.0,0.0,1.0,0.0,0.0,0.0,0.0,0.0
tw1197480887430078464,0.9999999992441455,0.0,0.0,0.8333333333333334,0.0,0.0,0.0,-0.16666666666666666,0.5,0.0
tw1459746573328400387,0.9999999988409453,0.0,0.0,1.0,0.0,0.0,0.0,0.0,0.0,0.0
tw1185377932438626304,-0.7664745716443089,0.0,0.6666666666666666,0.3333333333333333,0.0,-0.3333333333333333,0.0,0.3333333333333333,-0.6666666666666666,-0.3333333333333333
tw1219181151484628992,-0.6276138055158617,0.0,0.5,0.5,0.0,-0.5,0.0,0.0,-0.5,-0.5
tw1002992714630287360,0.9999999983799174,0.0,0.0,0.3333333333333333,0.3333333333333333,0.0,0.0,0.0,0.0,0.0
tw1007457920,0.0,0.0,0.0,0.0,0.0,0.0,0.0,0.0,0.0,0.0
tw1827902039822585856,-0.5230838669697583,0.0,0.5,0.5,0.0,0.0,0.0,0.5,-0.5,0.0
tw2303566986,0.9999999988409453,0.0,0.0,1.0,0.0,0.0,0.0,0.0,0.0,0.0
tw176057640,0.9999999988409453,0.0,0.0,1.0,0.0,0.0,0.0,0.0,0.0,0.0
tw1861762386543202304,0.9999999988409453,0.0,0.0,1.0,0.0,0.0,0.0,0.0,0.0,0.0
tw1686191091492478976,-0.8154698429838867,0.0,0.2,0.2,-0.2,-0.2,0.0,0.2,-0.6,-0.4
tw1248174113958567939,0.003608726125928406,0.0,0.25,0.5,0.25,0.0,0.0,0.0,-0.5,0.0
tw69863089,0.0,0.0,0.0,0.0,0.0,0.0,0.0,0.0,0.0,0.0
tw743245082086805504,0.9999999991083534,0.0,0.0,0.5,0.0,0.25,-0.25,-0.25,0.0,0.0
tw1451585194025234435,-0.3620155387011281,0.0,0.5,0.0,-0.5,0.0,0.0,0.0,0.5,0.0
tw1686019951482560513,0.9999999988409453,0.0,0.0,1.0,0.0,0.0,0.0,0.0,0.0,0.0
tw3373491849,0.9999999988409453,0.0,0.0,1.0,0.0,0.0,0.0,0.0,0.0,0.0
tw1535699839,-0.2540400129294601,0.0,-0.25,0.25,0.0,0.25,0.0,0.25,-0.75,-0.25
tw2927832597,0.9999999988409453,0.0,0.0,1.0,0.0,0.0,0.0,0.0,0.0,0.0
tw1685454930524434432,-0.9999999989048226,0.0,1.0,0.0,0.0,0.0,0.0,0.0,0.0,0.0
tw1678875994004783105,0.9999999988409453,0.0,0.0,1.0,0.0,0.0,0.0,0.0,0.0,0.0
tw2582365386,0.9999999996458451,0.0,0.0,1.0,1.0,1.0,0.0,0.0,0.0,0.0
tw1830662000700981249,0.9999999997293822,0.0,0.0,0.0,0.0,1.0,-1.0,0.0,1.0,1.0
tw1854597315228573699,0.9999999988409453,0.0,0.0,1.0,0.0,0.0,0.0,0.0,0.0,0.0
tw1001152153606537216,0.0,0.0,0.0,0.0,0.0,0.0,0.0,0.0,0.0,0.0
tw411805441,-0.5230838669697583,0.0,0.5,0.5,0.0,0.0,0.0,0.5,-0.5,0.0
tw423532348,0.9999999988409453,0.0,0.0,1.0,0.0,0.0,0.0,0.0,0.0,0.0
tw185767421,-0.5089858013570507,0.0,0.4,0.2,0.0,-0.2,0.0,-0.2,-0.4,-0.2
tw86785588,-0.9999999989888627,0.0,0.0,0.0,-1.0,0.0,0.0,0.0,0.0,0.0
tw1878534211641999360,0.9999999988409453,0.0,0.0,1.0,0.0,0.0,0.0,0.0,0.0,0.0
tw1357060028491042819,0.0,0.0,0.0,0.0,0.0,0.0,0.0,0.0,0.0,0.0
tw127196111,0.9999999988409453,0.0,0.0,1.0,0.0,0.0,0.0,0.0,0.0,0.0
tw2763948088,0.0,0.0,0.0,0.0,0.0,0.0,0.0,0.0,0.0,0.0
tw1683772715365285890,-0.7664745716443089,0.0,0.6666666666666666,0.3333333333333333,0.0,-0.3333333333333333,0.0,0.3333333333333333,-0.6666666666666666,-0.3333333333333333
tw1590716928364101632,0.9999999988409453,0.0,0.0,1.0,0.0,0.0,0.0,0.0,0.0,0.0
tw1172254617469673474,0.9999999988409453,0.0,0.0,1.0,0.0,0.0,0.0,0.0,0.0,0.0
tw899882899415080960,-0.4015957090032015,0.16666666666666666,0.3333333333333333,0.16666666666666666,0.0,0.16666666666666666,0.0,0.0,-0.3333333333333333,-0.5
tw851470018676224000,-0.9999999990534939,0.0,0.25,0.0,0.0,0.0,0.0,0.375,-0.25,-0.25
tw1474444677499830279,0.9999999988409453,0.0,0.0,1.0,0.0,0.0,0.0,0.0,0.0,0.0
tw46125034,0.9999999988409453,0.0,0.0,1.0,0.0,0.0,0.0,0.0,0.0,0.0
tw1246917715941634062,0.9999999988409453,0.0,0.0,1.0,0.0,0.0,0.0,0.0,0.0,0.0
tw791671886690353153,0.9999999988409453,0.0,0.0,1.0,0.0,0.0,0.0,0.0,0.0,0.0
tw1455714429287477254,0.9999999988409453,0.0,0.0,1.0,0.0,0.0,0.0,0.0,0.0,0.0
tw1661877565353611264,-0.5230838669697583,0.0,0.5,0.5,0.0,0.0,0.0,0.5,-0.5,0.0
tw174465699,0.9999999988409453,0.0,0.0,1.0,0.0,0.0,0.0,0.0,0.0,0.0
tw23230266,0.01734304816377772,0.0,0.0,0.3333333333333333,0.0,0.3333333333333333,0.0,0.3333333333333333,-0.6666666666666666,0.3333333333333333
tw1271472264437837824,-0.6276138055158617,0.0,0.5,0.5,0.0,-0.5,0.0,0.0,-0.5,-0.5
tw1619759052921212929,-0.9999999993869266,-0.6666666666666666,0.0,0.0,-0.3333333333333333,-0.6666666666666666,0.0,0.0,0.0,0.0
tw1565121868847370240,0.7018191564790994,-0.3333333333333333,0.0,0.6666666666666666,0.0,0.3333333333333333,0.0,-0.6666666666666666,0.0,0.3333333333333333
tw628816532,0.9999999988409453,0.0,0.0,1.0,0.0,0.0,0.0,0.0,0.0,0.0
tw857917103374036992,0.9999999988409453,0.0,0.0,1.0,0.0,0.0,0.0,0.0,0.0,0.0
tw261844337,0.1419569960975673,0.0,0.3333333333333333,0.3333333333333333,0.0,0.3333333333333333,-0.3333333333333333,0.3333333333333333,-0.3333333333333333,0.3333333333333333
tw868040832951230464,0.9999999988409453,0.0,0.0,1.0,0.0,0.0,0.0,0.0,0.0,0.0
tw1603340226822291464,0.9999999988975115,0.0,0.0,0.5,0.0,0.0,0.0,-0.5,0.0,0.0
tw1338617450125008898,0.9999999988409453,0.0,0.0,1.0,0.0,0.0,0.0,0.0,0.0,0.0
tw2895077031,0.9999999988409453,0.0,0.0,1.0,0.0,0.0,0.0,0.0,0.0,0.0
tw1337173647803510784,-0.03008035891852465,0.0,-0.5,0.5,0.0,0.0,0.0,0.0,-0.5,-0.5
tw1128022417580777473,-0.5230838669697583,0.0,0.5,0.5,0.0,0.0,0.0,0.5,-0.5,0.0
tw1020937044,0.1771190710836292,-0.3333333333333333,0.0,0.6666666666666666,0.0,0.0,0.0,-0.3333333333333333,-0.3333333333333333,0.0
tw1223318666705502211,-0.9999999995160941,0.0,0.75,0.0,0.0,0.0,0.0,0.75,-0.75,0.0
tw1869035573731532800,-0.5230838669697583,0.0,0.5,0.5,0.0,0.0,0.0,0.5,-0.5,0.0
tw1079874369189494784,0.9999999988409453,0.0,0.0,1.0,0.0,0.0,0.0,0.0,0.0,0.0
tw704768420223557632,0.9999999988409453,0.0,0.0,1.0,0.0,0.0,0.0,0.0,0.0,0.0
tw1710212631003295744,-0.830273236402125,0.0,0.6666666666666666,0.16666666666666666,0.0,-0.16666666666666666,0.0,0.3333333333333333,-0.3333333333333333,-0.16666666666666666
tw2835088744,-0.9999999994556058,0.0,0.6666666666666666,0.0,0.0,0.0,0.0,0.6666666666666666,-0.6666666666666666,0.0
tw1702657964,-0.34040446163882254,0.0,0.0,0.3333333333333333,0.0,0.3333333333333333,0.0,0.3333333333333333,-0.6666666666666666,-0.3333333333333333
tw1826768036516212736,0.9999999988409453,0.0,0.0,1.0,0.0,0.0,0.0,0.0,0.0,0.0
tw1425052994807029761,-0.5230838669697583,0.0,0.5,0.5,0.0,0.0,0.0,0.5,-0.5,0.0
tw82615530,0.9999999988409453,0.0,0.0,1.0,0.0,0.0,0.0,0.0,0.0,0.0
tw19945879,-0.7658064493555271,0.0,0.0,0.16666666666666666,0.0,0.0,0.0,0.16666666666666666,-0.6666666666666666,-0.3333333333333333
tw604784569,-0.7664745716443089,0.0,0.6666666666666666,0.3333333333333333,0.0,-0.3333333333333333,0.0,0.3333333333333333,-0.6666666666666666,-0.3333333333333333
tw1589325586262069250,-0.5230838669697583,0.0,0.5,0.5,0.0,0.0,0.0,0.5,-0.5,0.0
tw1612198998110081024,0.9999999988409453,0.0,0.0,1.0,0.0,0.0,0.0,0.0,0.0,0.0
tw1640328345039585280,-0.6276138055158617,0.0,0.5,0.5,0.0,-0.5,0.0,0.0,-0.5,-0.5
tw1125924883664392198,0.9999999988409453,0.0,0.0,1.0,0.0,0.0,0.0,0.0,0.0,0.0
tw1838870418133860352,0.9999999988409453,0.0,0.0,1.0,0.0,0.0,0.0,0.0,0.0,0.0
tw1519090176097669121,0.9999999996434038,0.0,0.0,0.0,0.0,1.0,-1.0,0.0,0.0,1.0
tw1110981912850513923,0.9999999988409453,0.0,0.0,1.0,0.0,0.0,0.0,0.0,0.0,0.0
tw1545459356937949184,-0.04217094146815258,0.0,0.5,0.5,0.0,0.0,0.0,0.0,0.5,-0.5
tw1789582215426322432,-0.9999999994318628,0.0,0.4444444444444444,-0.1111111111111111,0.0,-0.1111111111111111,0.0,0.4444444444444444,-0.4444444444444444,-0.3333333333333333
tw81202589,0.9999999996434038,0.0,0.0,0.0,0.0,1.0,-1.0,0.0,0.0,1.0
tw1569622094622883840,0.9999999988409453,0.0,0.0,1.0,0.0,0.0,0.0,0.0,0.0,0.0
tw1278572593,0.9999999988409453,0.0,0.0,1.0,0.0,0.0,0.0,0.0,0.0,0.0
tw19088243,0.9999999996434038,0.0,0.0,0.0,0.0,1.0,-1.0,0.0,0.0,1.0
tw1251992651861233667,-0.2298227194174833,0.0,0.3333333333333333,0.6666666666666666,0.0,0.0,0.0,0.3333333333333333,-0.3333333333333333,0.0
tw1525174015400325120,-0.9999999994608341,0.0,0.75,0.0,0.0,0.0,0.0,0.5,-0.5,-0.25
tw1543693257288335361,-0.5230838669697583,0.0,0.5,0.5,0.0,0.0,0.0,0.5,-0.5,0.0
tw1194703412203577345,-0.6946450887406423,0.0,0.6666666666666666,0.3333333333333333,0.0,-0.3333333333333333,0.0,0.0,0.0,-0.6666666666666666
tw1444858736372191235,0.9999999988409453,0.0,0.0,1.0,0.0,0.0,0.0,0.0,0.0,0.0
tw1190522569725579264,0.9999999988409453,0.0,0.0,1.0,0.0,0.0,0.0,0.0,0.0,0.0
tw1441490186358099973,-0.08406448599222509,0.0,0.5,0.25,0.25,0.25,-0.25,0.5,-0.5,0.25
tw1518965780204900353,0.9999999988409453,0.0,0.0,1.0,0.0,0.0,0.0,0.0,0.0,0.0
tw1329700716,-0.7899420426321102,0.125,0.375,0.0,0.0,0.0,0.0,0.125,-0.375,-0.25
tw1771511459601686528,-0.9999999992262479,0.0,0.4,0.0,0.0,0.0,0.0,0.6,-0.4,0.0
tw1605954343747854339,0.9999999988409453,0.0,0.0,1.0,0.0,0.0,0.0,0.0,0.0,0.0
tw1079229121249533952,0.5102868128844485,0.0,-0.5,0.5,0.0,0.5,0.0,0.0,-0.5,0.0
tw2877065680,0.9999999996434038,0.0,0.0,0.0,0.0,1.0,-1.0,0.0,0.0,1.0
tw1827833116205154304,0.4923543257509237,0.0,0.0,0.75,0.0,0.0,-0.25,0.25,-0.25,0.5
tw1717231959531782145,0.9999999988409453,0.0,0.0,1.0,0.0,0.0,0.0,0.0,0.0,0.0
tw19817448,0.6764919886403196,0.0,0.0,0.5,0.25,0.0,0.0,-0.5,-0.25,0.0
tw1621090822652366848,-0.7292621173297086,0.0,0.6666666666666666,0.3333333333333333,0.0,0.0,0.0,0.6666666666666666,-0.6666666666666666,0.0
tw1268639259700887554,0.010701686625915243,0.3333333333333333,0.3333333333333333,0.3333333333333333,0.0,0.3333333333333333,0.0,0.3333333333333333,-0.3333333333333333,0.0
tw1462582836465221633,-0.3023076797735292,0.0,0.0,-0.3333333333333333,0.0,0.3333333333333333,0.0,0.3333333333333333,0.0,0.0
tw129153199,-0.7664745716443089,0.0,0.6666666666666666,0.3333333333333333,0.0,-0.3333333333333333,0.0,0.3333333333333333,-0.6666666666666666,-0.3333333333333333
tw1208178126758535168,-0.5817814737727403,0.0,0.5,0.5,0.0,-0.25,0.0,0.25,-0.5,-0.25
tw1755357817890844673,0.6812823523749072,0.25,-0.25,0.25,0.0,0.5,0.0,0.0,-0.25,0.0
tw1339740098,0.5102868128844485,0.0,-0.5,0.5,0.0,0.5,0.0,0.0,-0.5,0.0
tw1487027049323806724,0.9999999996434038,0.0,0.0,0.0,0.0,1.0,-1.0,0.0,0.0,1.0
tw1344793914662797312,0.5102868128844485,0.0,-0.5,0.5,0.0,0.5,0.0,0.0,-0.5,0.0
tw1444289320962203649,0.9999999988409453,0.0,0.0,1.0,0.0,0.0,0.0,0.0,0.0,0.0
tw1800986544360034304,-0.5230838669697583,0.0,0.5,0.5,0.0,0.0,0.0,0.5,-0.5,0.0
tw1506370256608112642,0.9999999996434038,0.0,0.0,0.0,0.0,1.0,-1.0,0.0,0.0,1.0
tw1748515260435148800,0.0,0.0,0.0,0.0,0.0,0.0,0.0,0.0,0.0,0.0
tw863616144,-0.6569873475608351,0.0,0.2857142857142857,0.2857142857142857,0.0,-0.2857142857142857,0.14285714285714285,0.14285714285714285,-0.2857142857142857,-0.14285714285714285
tw1364261460680077315,-0.6276138055158617,0.0,0.5,0.5,0.0,-0.5,0.0,0.0,-0.5,-0.5
tw390993915,0.2983625161516759,-0.3333333333333333,0.0,0.3333333333333333,0.0,0.0,0.0,-0.3333333333333333,0.0,0.0
tw3292451347,-0.6276138055158617,0.0,0.5,0.5,0.0,-0.5,0.0,0.0,-0.5,-0.5
tw1520239597829169153,-0.34758278329570863,0.0,-0.3333333333333333,0.0,0.0,0.0,0.0,0.0,-0.3333333333333333,-0.3333333333333333
tw845008064,0.9999999988409453,0.0,0.0,1.0,0.0,0.0,0.0,0.0,0.0,0.0
tw2894787904,0.9999999988409453,0.0,0.0,1.0,0.0,0.0,0.0,0.0,0.0,0.0
tw1633220640189689856,-0.9999999993870984,0.0,0.5,0.0,0.0,-0.25,0.0,0.25,-0.5,-0.25
tw1498125521019932675,-0.7664745716443089,0.0,0.6666666666666666,0.3333333333333333,0.0,-0.3333333333333333,0.0,0.3333333333333333,-0.6666666666666666,-0.3333333333333333
tw1525688754358214657,0.9999999988409453,0.0,0.0,1.0,0.0,0.0,0.0,0.0,0.0,0.0
tw233640948,-0.7678492361131171,0.0,0.6666666666666666,0.3333333333333333,0.0,-0.3333333333333333,0.0,0.0,-0.6666666666666666,-0.6666666666666666
tw522408158,0.9999999988409453,0.0,0.0,1.0,0.0,0.0,0.0,0.0,0.0,0.0
tw1719491175046930432,-0.6241505941164299,0.0,0.0,0.3333333333333333,0.0,0.0,0.0,0.3333333333333333,-0.6666666666666666,-0.3333333333333333
tw1820911762394275840,0.9999999988409453,0.0,0.0,1.0,0.0,0.0,0.0,0.0,0.0,0.0
tw1659204452442832900,-0.6276138055158617,0.0,0.5,0.5,0.0,-0.5,0.0,0.0,-0.5,-0.5
tw1191734046377816064,0.9999999988409453,0.0,0.0,1.0,0.0,0.0,0.0,0.0,0.0,0.0
tw1753710373180739584,-0.5817814737727403,0.0,0.5,0.5,0.0,-0.25,0.0,0.25,-0.5,-0.25
tw1671065273615413248,0.9999999996434038,0.0,0.0,0.0,0.0,1.0,-1.0,0.0,0.0,1.0
tw1499121943492141062,-0.5230838669697583,0.0,0.5,0.5,0.0,0.0,0.0,0.5,-0.5,0.0
tw1887054367380967424,0.9999999988409453,0.0,0.0,1.0,0.0,0.0,0.0,0.0,0.0,0.0
tw1575355800129781761,0.3258928259256523,0.0,0.3333333333333333,0.3333333333333333,0.0,0.3333333333333333,-0.3333333333333333,0.3333333333333333,0.0,0.3333333333333333
tw2735491564,0.9999999988409453,0.0,0.0,1.0,0.0,0.0,0.0,0.0,0.0,0.0
tw1759452966262607873,0.9999999988409453,0.0,0.0,1.0,0.0,0.0,0.0,0.0,0.0,0.0
tw983521594776616960,0.9999999996434038,0.0,0.0,0.0,0.0,1.0,-1.0,0.0,0.0,1.0
tw787782601,-0.7936452768192284,0.0,0.25,0.25,0.0,-0.25,0.0,0.25,-0.75,-0.5
tw1874407291291848705,0.0,0.0,0.0,0.0,0.0,0.0,0.0,0.0,0.0,0.0
tw1851701811671109634,0.9999999988409453,0.0,0.0,1.0,0.0,0.0,0.0,0.0,0.0,0.0
tw772854745736314880,-0.5230838669697583,0.0,0.5,0.5,0.0,0.0,0.0,0.5,-0.5,0.0
tw923231030160400384,0.0,0.0,0.0,0.0,0.0,0.0,0.0,0.0,0.0,0.0
tw27561937,0.18596497770410197,0.0,-0.5,0.5,0.0,0.5,0.0,0.0,-0.5,-0.5
tw1635613880868122624,0.9999999993302114,0.0,0.0,0.0,0.0,0.3333333333333333,-1.0,0.0,0.0,0.3333333333333333
tw1547384094832480256,0.9999999996434038,0.0,0.0,0.0,0.0,1.0,-1.0,0.0,0.0,1.0
tw1889369933831979008,0.9999999996434038,0.0,0.0,0.0,0.0,1.0,-1.0,0.0,0.0,1.0
tw477671135,0.9999999988409453,0.0,0.0,1.0,0.0,0.0,0.0,0.0,0.0,0.0
tw448226808,0.014578493376786577,0.0,0.0,0.2,0.0,0.2,0.0,0.0,-0.4,0.0
tw49181858,0.9999999996434038,0.0,0.0,0.0,0.0,1.0,-1.0,0.0,0.0,1.0
tw2495230874,-0.7664745716443089,0.0,0.6666666666666666,0.3333333333333333,0.0,-0.3333333333333333,0.0,0.3333333333333333,-0.6666666666666666,-0.3333333333333333
tw916833460685115393,0.9999999996434038,0.0,0.0,0.0,0.0,1.0,-1.0,0.0,0.0,1.0
tw2843414261,0.6396455754291048,0.0,0.0,1.0,0.0,-0.2,0.0,-0.6,0.4,-0.2
tw3344219063,0.9999999988409453,0.0,0.0,1.0,0.0,0.0,0.0,0.0,0.0,0.0
tw1666305158995664897,0.9999999988409453,0.0,0.0,1.0,0.0,0.0,0.0,0.0,0.0,0.0
tw1888655312028336128,-0.5230838669697583,0.0,0.5,0.5,0.0,0.0,0.0,0.5,-0.5,0.0
tw1353283196,-0.04880376629871724,0.0,0.0,0.5,0.0,0.0,0.0,0.5,0.0,0.0
tw1495967132827463682,0.9999999988409453,0.0,0.0,1.0,0.0,0.0,0.0,0.0,0.0,0.0
tw2482836145,-0.7552121880509582,0.0,0.3333333333333333,0.0,0.0,0.1111111111111111,-0.1111111111111111,0.2222222222222222,-0.6666666666666666,-0.3333333333333333
tw16642836,-0.5574900104803427,-0.5,0.0,0.0,0.0,-0.5,-0.5,0.0,0.0,-0.5
